451 200
가게 -0.03685717 -0.037605718 0.041639455 0.13161545 0.082125664 0.02077768 -0.057688374 -0.037544303 0.10723818 -0.18894225 0.0054128496 0.033279583 -0.0065279226 -0.035682622 -0.05323168 0.037212633 0.0388685 0.11631146 -0.08928774 0.063524045 -0.0011894632 0.03236396 -0.011056597 0.011696292 0.005002975 0.014242896 0.07782138 -0.066207305 -0.19759452 0.025870033 -0.008724238 -0.016305823 -0.008533699 0.035061873 -0.07351877 0.097884126 -0.0527072 -0.029513065 -0.10128052 0.0049332934 0.06027537 0.14244612 -0.07308087 0.093406685 0.1213524 -0.0750615 -0.096515946 -0.0666878 -0.0014354681 0.08185789 -0.07467838 0.028695364 -0.045825332 -0.06509389 -0.025174571 0.09428801 -0.0015804496 -0.01422262 0.008089966 0.02381142 -0.029949304 0.01707044 -0.004179547 0.13020106 -0.041090354 0.040420644 -0.04439408 -0.12361076 0.10075355 -0.042581636 0.04469145 -0.037830334 0.034558695 0.119221 0.028988032 -0.124558195 0.07695001 -0.014112468 0.0045041107 0.14683256 -0.06359735 0.043261852 -0.12756371 -0.19739452 -0.06637991 0.07523909 0.09050406 -0.106797524 -0.028398545 -0.09677679 -0.09358428 -0.12944144 -0.0815063 -0.028214868 -0.044479556 0.1458674 -0.015744884 -0.0133046415 7.041587e-05 0.12071449 -0.0062233317 0.022770343 0.03186327 0.09518953 -0.10646336 0.056233607 0.0045187995 -0.030380007 -0.006221838 -0.124685995 0.0125866905 0.034841407 0.14307156 0.07306814 0.08903186 -0.028171714 0.03222869 0.15888979 0.01969403 -0.009042273 0.024401017 -0.07087175 0.0057739276 0.0050783 0.062182695 0.042724375 0.0359681 0.09817264 0.015341511 0.054016188 -0.041156467 -0.005879266 -0.058656562 0.03648151 -0.03634403 0.13398306 -0.02526002 0.01687946 0.05087373 -0.050715502 -0.04267569 -0.19012512 -0.07880671 0.08376577 0.05999957 -0.17161866 0.07225902 -0.02878582 0.06687093 0.0031439755 -0.003398968 0.05527123 0.013058612 -0.09067557 0.033282626 0.037937663 -0.0005709114 0.03136783 -0.012010067 -0.057661816 -0.07028834 0.035415124 0.10841273 0.048803195 0.06214231 0.11737868 0.08887363 -0.1309886 -0.03796256 0.06843025 -0.014758414 0.02617548 0.01426912 -0.0058275927 -0.08581251 -0.034953166 0.07644323 0.067901626 0.082415834 0.02259004 0.0049702222 -0.058722675 0.011905198 -0.05635477 -0.020533226 0.0632773 -0.09032259 -0.03533518 0.009115911 0.051409554 0.026648508 0.035248045 -0.015367042 -0.049316887 -0.01835741 0.041713864 -0.108253114 0.021068469 -0.03434348 0.022555435
가방 0.011256488 0.08581867 0.051923983 -0.0058208765 -0.056472097 -0.06247428 -0.011419072 -0.11489479 0.12943286 0.052667577 0.015553351 0.018516887 -0.06442842 -0.07616519 0.00026362488 0.13457553 -0.035012513 -0.06502475 -0.034327645 0.12073736 -0.06472735 -0.0022440515 0.042130087 0.08216804 -0.05411392 0.041969355 -0.09179701 -0.10952052 -0.072965175 -0.012671392 -0.0639045 0.09076949 -0.03348448 0.048864823 0.014806952 0.002162285 0.022395696 0.04203758 -0.15388492 -0.036495507 -0.11715339 0.07593404 0.15160336 0.035489623 0.06908207 -0.010649315 -0.11751239 0.1101142 -0.0302158 0.114734076 0.008306176 0.07730553 -0.021339277 -0.061144505 0.038677715 0.00023466049 0.030654052 -0.058962077 -0.1678655 0.054760814 0.09527146 0.03402076 0.022627298 0.16843335 0.0016657768 -0.05300824 0.077725686 -0.16630568 -0.04632892 0.017037777 -0.058258444 -0.084380716 0.021724366 0.2147965 -0.04200954 0.051939435 -0.03252165 0.110881865 0.0040324307 0.051462766 0.062515564 -0.049616367 0.014717403 -0.072972685 -0.039334543 0.014343265 0.056085944 -0.050840385 -0.015487469 -0.010553231 -0.03935044 -0.0024179395 -0.07364607 -0.108513534 -0.025705442 -0.037008163 -0.016497038 -0.08498522 -0.072923675 -0.044360425 0.0066154934 -0.049957916 0.029961238 0.09032374 -0.08227115 0.0149115585 0.050835967 -0.06921895 0.08664373 -0.072363324 -0.06365304 -0.023023382 0.073028326 -0.03287291 0.11722736 -0.09951114 0.026231123 0.02827093 -0.01858321 0.051843837 -0.05638621 0.085406914 0.07642241 -0.008123237 -0.07073153 -0.03374743 -0.050633732 0.03410576 0.0037273986 -0.004144964 -0.049911775 0.035284515 -0.14223535 -0.030313827 0.042285737 -0.02883812 -0.010943861 -0.016518343 0.02776004 -0.09192772 0.013287838 -0.12410141 -0.07336568 0.046162672 0.1297245 -0.13851671 0.06478299 0.10015561 0.034154333 -0.08009203 0.023623908 0.15396903 0.049215425 -0.1113561 0.0099580465 0.07273513 -0.0006258511 -0.11349725 -0.019932497 -0.057933006 0.037788406 0.00029813757 -0.050346274 0.0519189 -0.080894575 0.095879495 0.13499215 -0.08909707 0.048850473 0.04720167 0.032096643 -0.060945358 0.11606163 -0.16384904 -0.0673253 -0.07365711 0.000911159 0.052486535 0.12129085 0.00434773 -0.003251635 0.04580655 -0.0051444 -0.0960835 -0.021342125 0.004280038 -0.018009441 -0.017875956 -0.0029020486 -0.049927447 -0.030454908 0.10026069 -0.0011128148 -0.034347076 0.07007316 0.020752128 -0.029714625 0.13960165 -0.02647553 0.062042866
가수 0.016691033 0.051997043 -0.09542588 -0.02999731 0.01813096 -0.004049648 0.06433195 -0.11053658 -0.041295018 -0.07204147 0.0037014019 0.059750717 -0.017346427 0.10065816 0.089391716 0.01625205 -0.01339093 0.027694525 0.00092180405 -0.036614273 0.014496502 -0.1257492 0.02088817 0.11471711 0.040390514 0.011432739 0.015369932 -0.06278832 -0.00016983267 0.032333747 0.017873546 -0.24519216 0.055372585 0.013011324 0.046435658 0.047575712 0.023476887 -0.08399906 -0.1220498 0.06302698 0.07846392 -0.042160146 0.025610587 -0.030365555 -0.040415097 0.01686413 -0.0054519153 -0.060985517 -0.0397187 -0.028321473 0.006988164 0.021790216 -0.06995324 0.04060841 0.024394399 0.03678849 -0.061157353 -0.08112255 0.008103425 0.07489149 -0.025997447 -0.052653108 -0.027924351 0.017801471 0.04793298 0.15288241 -0.044064853 -0.05868345 -0.007888659 -0.023672873 0.02450394 -0.014696614 0.05162283 0.12906936 -0.066005394 0.059601318 -0.057081833 -0.07368509 0.02039093 0.0324421 -0.013136857 0.0063672303 -0.056484 -0.22303204 -0.042783275 0.035759646 0.037879862 -0.11019793 0.04091484 -0.0016695352 0.009941954 -0.05286169 -0.030504694 0.09881717 0.08595866 0.021620698 0.105696894 -0.039359525 -0.09388274 -0.097947516 -0.11681179 0.11306394 0.0323452 -0.054093152 -0.05495828 -0.13213323 -0.0813359 -0.124320135 -0.023217017 -0.05528667 0.011216827 -0.008459021 -0.13402815 0.048668038 -0.0008982082 -0.0026193382 0.043367263 -0.14143887 -0.039630637 -0.006110079 0.031411584 0.019174505 -0.027331293 -0.041393586 0.010397237 0.095270276 0.089074306 0.036320247 -0.041884974 0.012762885 -0.1580734 -0.008486013 -0.02857779 -0.0825225 0.09675328 0.08231821 0.10734815 -0.0705537 0.053906288 -0.08864974 -0.101680085 0.08805835 -0.14318846 -0.09503878 0.044721633 -0.166202 -0.046337567 0.014244003 0.0736858 0.06737719 0.018715117 -0.05111664 0.021847563 -0.016333934 0.16911979 -0.10314638 0.01105509 0.012076178 -0.008760466 -0.15971653 0.07724726 0.025129935 0.037243605 0.05026059 0.14231451 0.05351728 0.051031202 -0.05290489 0.13463242 -0.07701553 -0.004407822 0.0065551475 0.03961966 -0.012377337 -0.046562623 -0.03766507 0.06172989 -0.03286953 -0.016213626 -0.044742156 -0.04111006 -0.014842313 0.013261245 -0.0043061306 0.022004623 -0.006241101 -0.038574826 -0.13697675 0.0041000997 -0.09147804 0.108578175 0.19714868 -0.008128674 -0.016409086 0.04964557 -0.024282947 -0.07848207 0.07843433 -0.117238745 -0.02008846
가슴 -0.09448103 0.009989852 0.03456167 0.028676923 0.03830823 -0.0671811 -0.00048826917 0.087847345 0.099602185 -0.025357071 -0.0028132724 0.008945384 -0.014039472 0.13518997 -0.01381101 0.06800539 0.083396845 0.012590876 -0.052197803 0.048567332 0.07194684 -0.068816364 0.066602826 0.052649885 -0.02399261 0.051715907 0.04912058 0.026638309 -0.030133266 -0.06763611 -0.016925775 -0.0020253293 0.04003108 0.09290381 0.052704196 0.09567991 -0.008354674 -0.018769555 0.024541654 0.03618761 0.042151693 -0.007441197 0.07953899 0.007468167 0.08294369 0.126142 -0.00086351327 -0.038302373 0.05932617 -0.016001675 0.063203715 0.014965142 0.038326066 -0.06375004 -0.09007179 0.052971773 0.051820274 -0.17205462 -0.033096805 0.10639163 -0.028220052 0.1287666 -0.055402827 0.02357807 0.093766965 0.005094673 -0.08222351 0.015852766 0.023839226 -0.006732328 0.14385267 -0.010174331 0.07181318 0.07326021 0.04127896 -0.1072183 -0.020906543 0.01108344 -0.17864251 0.09595468 0.13073573 -0.12942022 0.00807062 -0.072384275 -0.02756563 0.112962745 0.08572007 0.0014051587 0.09871215 -0.024147695 -0.00031282898 -0.111382335 -0.048193526 -0.07348013 0.13205841 0.039851367 0.0073231454 0.067247935 -0.0906506 0.03213008 -0.024104139 0.086006545 0.14673555 -0.0393921 0.0007003575 0.0070202155 0.09368656 -0.045497563 0.053207926 -0.16005696 0.085728854 -0.02368667 -0.012166273 -0.00071001943 0.0155830365 -0.103001304 0.079009436 0.023684008 -0.022513742 0.07958133 -0.01784511 0.055599045 0.046646126 -0.046204433 0.025142403 -0.12242419 -0.021919835 0.011622234 -0.06582806 -0.13297802 0.020880027 0.018983213 -0.017799769 -0.10308463 0.089454904 0.0133860875 0.1499427 -0.08478103 -0.045851395 -0.021852529 -0.024223015 -0.08242213 -0.012484166 0.030060317 0.0054199677 -0.086801544 0.050873786 0.017661402 -0.034486324 -0.024187898 0.09989053 0.021643262 0.022156632 0.011357989 -0.017622557 -0.05519303 0.006193667 0.08045593 -0.16295473 -0.07315424 0.03284441 -0.08145061 -0.053756654 0.14300974 -0.01749617 0.07087574 0.082165204 -0.041643973 -0.016825935 0.0196883 0.021715866 0.014027811 0.05983203 -0.045879353 0.043660752 -0.02572105 -0.042408887 -0.052871663 0.046794157 -0.023540424 0.00038507642 0.0016254099 -0.0667434 -0.04418392 -0.10950613 0.076230675 0.012850755 -0.045701236 0.07296894 -0.04283647 -0.022551974 0.19404195 0.20868047 0.15686952 -0.05835758 -0.061406318 -0.1873031 0.07686885 0.036754172 -0.029601049
가위 -0.0797189 0.011171182 -0.12082783 0.13470209 -0.091038145 -0.010702693 -0.02861495 -0.09230786 0.08155154 0.0021711467 -0.010898763 0.10062731 -0.053127833 -0.080076516 0.036065564 0.07977299 0.013228468 -0.029965792 0.036396783 0.022522535 0.037375085 -0.044043187 0.011191043 0.01685177 -0.13283375 -0.057555713 -0.0009064982 0.0013790503 0.009888965 0.09872977 -0.04546391 0.15177733 -0.075988516 0.14462721 -0.014243135 0.017558387 0.09016543 -0.111701444 -0.026148647 -0.088654704 0.0069146473 -0.07609539 0.05935633 0.060573474 0.109467484 0.17521414 -0.14855947 -0.0044861827 0.10947572 -0.005851216 0.0066166357 -0.015202224 -0.07058947 -0.04971525 0.059262436 0.016960178 -0.09041314 -0.015298821 -0.03530209 -0.03228866 0.05859589 0.04151566 -0.13440613 0.07787696 0.024041042 -0.16091326 -0.010566852 -0.037634913 0.036470342 -0.017688517 -0.0114884265 -0.024229042 0.018853996 0.117025845 0.047895163 -0.07864736 -0.040736612 3.0960535e-05 0.05877545 0.04098173 0.12833297 -0.023924649 0.020431133 -0.0021797353 -0.06764029 -0.02888711 0.0121369995 -0.14235607 0.01718483 -0.10379175 -0.067264296 0.09790594 0.031039283 -0.041062206 -0.033456042 0.059806973 -0.0422668 -0.00479579 -0.029490054 0.023632372 0.008975005 -0.08153856 0.10991791 0.00060578884 -0.14963794 -0.094137035 -0.029470151 0.06474217 -0.06699278 -0.058387984 0.008532477 -0.027860131 0.0072202305 0.07237148 0.042828858 -0.056798078 0.11604992 0.061071493 0.024758864 -0.045455903 0.07078591 0.04057284 -0.030566143 -0.09895303 -0.15472414 0.08787609 0.024670813 0.058510434 0.07427746 0.050308675 -0.037806254 0.1319764 -0.15112442 -0.07903894 0.048692167 -0.06977711 0.11462357 0.015120988 0.0069719558 -0.039971195 0.04498276 -0.012574509 0.115166165 0.051076476 -0.012424064 -0.15755844 0.12734342 0.22058265 0.046789438 0.01070676 0.09102798 -0.013064871 0.08680823 0.109754786 -0.0037875052 0.013050916 0.09404769 -0.023988038 -0.07377728 0.018189805 0.09616503 -0.039540887 -0.046039592 -0.05782441 -0.024856651 0.08569471 0.066663295 -0.11943243 0.10544676 -0.008030757 -0.04538624 0.010132501 -0.056752 0.07903959 -0.024274258 0.0037105952 0.03629813 -0.029267006 -0.039113827 0.08111799 0.069403484 -0.020934798 0.0011132176 -0.12415129 -0.0004863116 0.028547235 0.06980004 -0.06738501 0.004538516 -0.044909425 0.021606844 0.05794015 -0.06919471 -0.019283285 0.03409274 0.0279815 -0.015301785 0.081193276 0.05772857 -0.023441123
가을 -0.025729705 -0.011732184 -0.1570699 0.0022729645 0.00063797977 -0.12355552 -0.021325031 -0.041085977 0.020127356 -0.02546507 0.063553795 0.16072026 0.07327952 0.008024079 -0.10182933 -0.018535847 0.07902016 -0.06264093 -0.0074441526 0.02333702 0.05793264 0.00806529 0.016766336 0.059570618 -0.20766497 0.046882764 0.045529988 -0.0010588684 0.10248893 0.041239586 -0.020474138 0.050233323 0.16804573 -0.013696848 -0.050808676 0.035144936 -0.007065766 -0.08102482 0.023235684 -0.07011892 0.036767222 0.054433152 -0.025800345 0.015206045 -0.085468 0.03629372 0.028049605 -0.05447885 -0.16657045 0.07488447 -0.023343295 0.082009524 0.05116215 0.07319777 0.14753221 0.018487122 0.08676187 0.031616542 -0.049495544 0.020013383 0.11310357 0.06803607 -0.054827917 0.0852241 0.012812561 -0.033735175 -0.12342806 -0.04929183 0.048490185 0.025206985 0.041966904 -0.057041526 -0.07817364 0.04592778 -0.05760119 -0.14010543 -0.0012922705 0.018104 -0.087692626 0.06844488 -0.01514182 0.061793584 0.040979438 0.008674012 0.026472824 0.043201305 0.055023097 -0.06680277 0.056264106 0.12727661 -0.05302284 -0.0411793 0.009159679 0.029941125 0.040442623 0.030742219 0.0934528 -0.09248543 -0.14928222 0.058395404 0.011611828 -0.022220083 0.06589211 -0.0624463 -0.04244894 -0.05682377 -0.040978886 -0.06089449 -0.014677213 -0.024825625 -0.016907945 -0.10658993 -0.04808606 -0.026415316 -0.049141247 0.022672249 -0.011685357 0.089618005 -0.015014306 0.19853386 0.066327065 -0.037571345 0.021107608 -0.015938455 -0.12520313 -0.104343556 -0.023442758 0.0151648335 0.055612493 -0.03905681 0.05827565 0.06817454 -0.013122043 0.013079731 0.038124956 -0.0014263727 -0.019203288 -0.017035073 -0.030046284 -0.032662917 -0.07489713 -0.027365342 -0.03237221 -0.044234473 0.05348918 -0.15528575 -0.0016060217 -0.0990456 0.02794472 -0.07322557 -0.05205327 -0.0896202 0.036214713 0.08748725 0.19432743 -0.13874412 -0.09829488 -0.07675727 0.009084965 -0.07647922 -0.063846424 0.051183626 0.08840012 0.11781158 -0.083732575 0.10025632 0.0016760858 -0.049000572 -0.055905677 -0.1237072 0.017300785 -0.035742313 0.013024755 -0.048131756 -0.0148935355 0.05391478 0.14347002 0.10023072 -0.010055611 0.024745405 0.035501987 0.0043695457 -0.0011572626 0.025900744 0.06525867 0.08246844 -0.036303632 -0.06802561 0.012999263 -0.1194892 -0.05740601 0.027118653 0.15470488 -0.16116045 -0.11458022 0.03199837 -0.07373678 -0.029911667 0.024501747 0.022025233
간호사 -0.05951944 -0.104546405 -0.05278545 0.020453852 -0.06688841 0.071953155 0.035497844 -0.051293667 0.068504944 -0.013179533 -0.040461455 0.17001244 -0.07701695 0.06345641 -0.029372105 0.069862664 0.11638164 0.010205851 0.043942116 0.07758681 -0.10465326 -0.13642667 -0.13118947 -0.0040199547 0.06490716 0.03442684 -3.7763898e-06 0.10484719 -0.06583195 -0.037070487 0.008331801 -0.090700574 -0.09547837 -0.0103120925 -0.019048898 0.053876493 -0.044040866 -0.113032654 -0.045038883 0.010584878 0.0055633998 -0.08123754 0.013807326 0.0941259 0.03821997 -0.0628608 0.009594232 -0.10480163 0.06452479 0.030960014 0.07227016 -0.07351697 -0.09135153 -0.047205705 0.026341558 0.011056647 0.009233285 -0.037805878 -0.039671678 -0.018247718 -0.013677135 0.08442074 -0.021476913 0.019347277 0.023309458 -0.07421945 0.04520514 -0.052602254 -0.078887515 -0.03987896 0.061228044 -0.18674378 0.040944006 0.086616434 0.016532004 -0.03723197 -0.0041505746 -0.035972524 -0.11508665 0.071540736 -0.027273979 -0.022059577 -0.0590648 -0.00711369 0.0268773 0.12585016 0.051733047 0.050156824 -0.09405051 -0.06327346 0.0045155287 -0.09904824 0.0023123093 -0.010172146 -0.068068184 0.036249697 0.095230535 -0.014504364 0.03318981 -0.0015296886 -0.11936711 -0.000354041 0.029400492 0.07207505 -0.029367574 0.012274495 0.03956553 0.09548004 0.03704735 0.04304881 0.10598904 0.13243745 -0.022191055 0.1283173 -0.024897963 -0.0045180335 0.00017249293 -0.011559114 -0.03655192 0.082308546 0.051924825 -0.026794054 -0.07856431 -0.23437767 -0.12508614 -0.09731459 0.048339926 0.09493643 -0.034047093 -0.061439864 -0.15241522 0.030012563 -0.104141615 -0.019496169 -0.09059992 0.02499743 0.06783729 0.090494245 0.02052763 -0.024754606 -0.07517096 0.0048665525 -0.10106479 0.027099852 0.03155181 -0.15868671 -0.036360856 -0.08953797 0.043027822 -0.09397538 0.077563666 0.03497713 0.16330874 0.01867643 0.07371949 0.024451908 0.013485617 -0.00601766 -0.11227221 -0.03996364 -0.0031140582 -0.1860778 0.01714081 0.008138375 0.043548774 0.0037827825 0.031879794 0.09334351 -0.078149505 0.0035232836 -0.005641948 -0.06289992 0.06932215 0.03401131 0.035778597 -0.096530534 0.15181006 -0.0818489 0.043225564 -0.049014498 -0.09301266 0.014898562 -0.0688501 -0.072709545 0.116508774 0.07384376 -0.06490311 -0.041548207 0.011071388 -0.0013895272 -0.046151396 0.09126184 -0.07905044 0.09346921 0.020996869 0.047170404 -0.024579523 0.03300447 0.10566654 -0.040220063
감 0.11058901 0.032296304 -0.009740136 0.14090787 0.110262714 0.031198867 0.016579892 0.09559045 0.038920205 -0.07621052 0.0052389572 0.07538705 0.098094635 0.11671766 -0.07445962 -0.027748754 -0.060192693 -0.02883717 -0.0005075312 -0.0037201117 0.007347743 -0.043299586 0.046730217 0.035666004 -0.047999367 0.0162487 0.16304024 0.18124874 -0.025293428 -0.022537213 -0.027313372 0.004963811 0.120329976 0.0116452025 0.07626988 0.13579652 0.090294786 0.10666089 0.027202396 -0.02459356 -0.008027672 0.07878456 0.06334852 0.012812064 -0.14397155 0.018987862 0.12373404 0.09778637 0.042339034 -0.010406849 -0.08500929 0.059914272 0.128768 0.021477753 -0.1380259 0.037214234 -0.026631018 -0.09697339 -0.08220011 0.0427306 0.034346025 0.044950463 0.089741215 -0.05096924 -0.005333438 -0.032473426 0.03313066 0.09691829 -0.0854976 0.060491785 0.15234956 -0.013429322 -0.053460967 -0.05947942 -0.04659117 0.11107471 -0.024024213 0.20295641 -0.059072107 0.09756992 0.022408297 -0.055814955 -0.012002694 0.0040694717 0.01435521 -0.004823221 0.017217385 -0.14168444 0.07131364 -0.007219057 -0.17122379 -0.012273971 0.010033122 -0.026139067 -0.061842263 -0.015823552 0.06156679 0.10025185 -0.05066261 -0.09454364 0.0006734288 0.0047771772 0.1491275 0.074999094 -0.04058846 -0.024412928 -0.055212192 -0.09395629 -0.004978372 -0.037979003 0.0556582 0.07808637 -0.024197632 0.06459044 -0.03897497 0.064617984 -0.03213128 0.030794347 -0.08902695 -0.05354951 0.10456237 0.060124815 0.021582073 -0.007011304 0.034550007 -0.002126203 -0.11161286 0.11787202 0.043904644 -0.024792982 0.014045826 -0.09173578 -0.07810441 -0.059633877 0.16757967 -0.065772355 0.035661086 -0.00987174 -0.1439781 -0.059794243 0.012094979 0.059396446 -0.007800143 0.06346559 0.013444965 -0.0073581384 -0.03721325 -0.027312456 -0.040458925 0.0066774557 0.057199214 -0.0819148 -0.0025583692 0.054618284 0.004190615 -0.04424341 -0.018428814 -0.036815453 0.017464098 -0.007671851 0.07396902 0.066238694 0.035416767 -0.07940963 -0.0060165147 0.028415728 0.041320764 0.015779639 -0.020438101 0.048993044 -0.0922113 -0.061604172 0.060108084 -0.049497094 -0.13475399 0.040977076 -0.07146483 -0.023114953 0.12961967 -0.01831059 0.15609698 -0.0995212 0.001955127 0.011256915 0.13930258 -0.10217853 0.079685755 0.0063194707 -0.05564115 -0.08411368 -0.020793792 0.1462783 0.03212941 0.012632678 0.010328764 -0.042763725 0.032112096 0.01387595 -0.029189087 0.009483453
감자 -0.0050880206 -0.1287024 -0.081112854 -0.011070641 -0.030257821 -0.122417025 0.052216914 -0.029876882 0.037423454 -0.0012111212 -0.023404453 0.10174893 0.016310375 0.0065934476 -0.0029747917 0.03823568 0.017401317 -0.04107384 0.012978693 -0.06539432 -0.04634118 -0.0013599966 -0.01929634 0.06445467 -0.12425503 -0.053663377 -0.034555033 -0.11281118 -0.02455213 -0.0073733456 -0.06231699 0.0009113917 0.07199284 0.08859759 -0.022109702 0.08909955 0.04557312 -0.20008089 -0.053077284 -0.09548607 0.001432545 0.018776607 0.075624235 0.029148571 0.062026814 -0.0011763861 -0.009152696 -0.07194889 -0.008311185 -0.03804333 0.03681395 -0.051438253 -0.030449284 -0.023264663 0.035830572 0.044966485 -0.026482882 -0.038941685 0.06393482 0.03438919 0.13707732 -0.06706315 -0.07884223 0.09635218 0.045704734 -0.08597805 -0.18191859 -0.034367327 0.060307838 -0.0314119 0.05128654 0.0071540577 -0.03428032 0.066138305 -0.055799726 -0.075060226 -0.017266918 -0.108562104 0.051364053 0.10251919 0.18430361 0.17109308 -0.045066744 -0.17165776 0.08595243 0.03285351 0.06303912 -0.07415878 0.053991318 0.039454244 -0.021189352 -0.010154908 0.14017893 0.012489236 -0.007863509 0.024465783 -0.012438355 -0.08753008 -0.08154789 0.026773058 -0.045535352 0.038070053 0.117382005 0.034504242 0.05396305 0.013576976 0.030697063 0.13775419 0.10172176 0.013088315 0.15519921 0.08004865 0.01332284 -0.057516493 0.044504058 0.061317716 -0.07368045 -0.061160922 -0.007952108 0.07735912 -0.008650872 -0.07691766 0.038382977 -0.0007182147 -0.018347526 0.09257636 0.016990963 0.055836387 -0.021247078 0.020029973 -0.06708546 -0.005957997 0.07631479 -0.17810568 -0.026489507 -0.007821396 0.047667287 0.049969483 -0.1145381 0.16105793 0.014363234 0.040347736 -0.03409636 0.12681405 0.042115074 -0.03733313 0.009693209 0.11313647 -0.026232898 0.024333723 0.0050832285 0.060417812 0.08659065 0.039430395 0.030438906 -0.17863457 -0.046255495 -0.01001905 0.0044301995 -0.09217422 0.029119642 0.009131627 -0.07305218 -0.027210532 0.08113869 -0.0057800487 -0.0680483 -0.13852534 -0.08639322 -0.012216815 -0.01252161 0.017324775 -0.011978954 -0.034525663 -0.029146804 -0.03702639 0.09852806 0.057808876 0.056258846 0.04234673 0.04612123 0.06611158 -0.07830605 -0.061311312 0.04030556 0.14942637 0.0930739 0.008374763 -0.025186585 0.027210752 0.009901942 -0.013348104 0.09834808 -0.14553858 0.018414814 0.028254192 -0.1908043 0.021870892 -0.08415595 0.019874064
강 -0.048429877 -0.038714033 0.040691465 0.057644736 0.03237515 -0.03757739 0.018162752 -0.0676229 -0.002833435 -0.038921975 -0.006483652 0.07031968 -0.04934674 0.09285501 -0.026786527 0.0066082207 0.042225674 -0.015463889 0.0009057018 0.011424383 -0.031235127 -0.050629616 -0.076757185 -0.07626776 -0.0056455685 0.06764319 0.023577131 0.048266448 0.059121467 0.075459644 0.019548727 -0.10302027 -0.020617636 0.12820956 0.019335939 -0.016510282 -0.06852145 0.05733085 0.037565835 -0.008554263 -0.024365878 0.12773788 -0.0011210862 0.10690779 0.017979633 -0.042485747 -0.11668957 0.026685797 0.11250338 0.10432428 -0.07410576 0.059616815 0.17511056 -0.12232121 0.006621971 0.11108637 -0.020968236 -0.060831223 0.009147097 -0.07746638 -0.018439615 0.016748628 -0.03920825 0.009379893 0.0034792982 0.049723458 -0.26173124 -0.11255888 0.07630805 0.016570326 0.050730206 -0.037874367 0.036156446 -0.049495228 0.0663713 -0.112853885 -0.04577564 -0.0075290026 -0.12741102 0.038042303 0.11375441 0.07197505 0.022924365 -0.17544644 -0.0175416 -0.07109566 0.06297067 0.08758515 0.036363825 0.14139393 -0.0005013399 0.04063032 0.01904885 -0.05001565 -0.052966297 0.017548222 0.06666265 -0.0055780574 -0.099985376 -0.077321276 -0.00049415487 0.00964061 0.021466315 0.052410092 -0.047151785 -0.06870122 0.023949625 0.10414818 0.03984504 -0.023525879 0.06812557 0.023628809 -0.16620678 -0.13499758 0.001530193 -0.021883748 0.0016305156 0.13085674 -0.0516389 0.1453843 0.05808739 0.0010815827 -0.12098142 -0.005379554 -0.08363931 0.018683484 0.007469944 0.07095083 -0.0965267 -0.09807951 -0.0040196963 0.047595847 0.1018856 0.09547713 -0.08335275 0.049050603 -0.0131374905 0.008649556 0.08244462 -0.02362816 0.023829764 0.0853361 0.029006641 -0.07638243 -0.05327061 -0.017859966 0.13950695 -0.05109397 -0.022221725 -0.008192617 0.13064598 0.11716237 0.056773797 0.07103931 -0.066025294 0.042854574 -0.035500776 -0.02120799 0.049818695 -0.011298632 -0.024282983 -0.019689415 0.015642218 0.11042507 0.13439572 -0.06200844 -0.06473312 -0.02934927 0.0628002 0.039080046 -0.06698104 0.06382865 0.14553277 -0.009656953 0.107024446 0.06959329 0.03451854 0.040508036 0.0071113976 0.07376765 0.085530795 -0.03412689 0.05943874 0.0072779492 0.113538586 -0.08186812 0.021393955 -0.018145056 0.0037614582 0.058330555 0.06933434 0.04157057 0.1532912 -0.10744371 0.12707685 -0.063747495 0.025514638 -0.018692387 -0.016630623 -0.04138038
개 -0.028582815 0.19422957 0.008997638 -0.0052320114 -0.11765534 -0.019020984 0.039260708 -0.07426767 0.18823555 0.025638241 0.022580262 0.034336325 0.0077537764 0.020041885 0.044568352 0.014350835 0.056161463 -0.01711608 -0.021731026 0.06994134 0.03388807 0.08804958 -0.12923767 0.085745946 -0.04042827 -0.021642864 -0.08383081 0.06265182 0.017382585 0.013223322 0.09714815 0.00048130486 -0.01320604 0.12784627 0.024552116 0.09319868 -0.051066577 -0.049366534 -0.01700425 -0.021155352 -0.043023653 0.0775739 0.04916106 -0.06496975 -0.035428982 -0.042185433 0.017460722 -0.11880192 -0.061172407 0.07605369 -0.06402369 0.03199975 0.054760158 -0.09952203 0.077918984 -0.0010864129 0.1119554 -0.06801688 0.106342606 0.0053641563 0.18151231 0.0769808 0.020245932 0.036379408 0.023359811 -0.008726529 0.010305473 0.01954627 0.12285107 0.05851669 0.028558422 -0.03562367 0.005323732 -0.093643725 -0.012129034 0.0835956 0.025140643 0.016271392 -0.0603339 0.110398754 0.016711865 -0.014519236 -0.034755144 -0.143919 0.079983346 0.0055194423 -0.006258129 0.15749255 -0.09679171 -0.17308177 0.09081518 0.07024999 0.03998701 -0.087336406 -0.11817413 0.13549808 -0.046561014 -0.029191311 0.03555489 0.050232444 -0.06541917 -0.03837615 0.09076593 -0.058595385 -0.09873511 -0.015789097 -0.023145331 -0.06000718 0.05175703 -0.043637455 0.030496145 0.1015418 0.056869693 0.0035119457 -0.05209045 -0.090595424 -0.050734032 0.15632644 -0.0930786 0.027677098 0.05939863 -0.06956304 0.075011455 -0.0053423266 0.015038169 0.03781015 0.01929533 0.024005525 0.012045854 0.060292516 -0.0373686 0.008174809 -0.12997708 0.06999206 0.020489732 -0.06978717 0.056852497 0.062482193 0.06677675 -0.11943291 0.04707834 0.10365367 0.035008416 -0.0052445442 0.0653702 -0.07555123 0.015893728 0.061908323 -0.0009026054 -0.030239666 -0.05404843 0.0624105 0.04821588 0.002258507 0.006413211 0.028725075 -0.029874768 0.005619877 -0.1488434 -0.07635476 0.039167155 0.06546346 0.03205658 -0.03669913 0.027591323 0.07307213 0.011069721 -0.10119672 0.064838886 0.037410278 -0.041273188 0.15531684 -0.04201785 -0.03968215 0.077694856 0.00800804 0.1537643 -0.006596651 -0.036062893 0.1649616 -0.023673298 -0.02129041 -0.033023622 -0.11573642 -0.08012615 0.018731136 0.10211072 0.01790344 -0.034139596 -0.14981335 -0.08138173 0.041026037 0.00033491405 -0.006985682 0.012188025 -0.038285214 -0.0557546 0.0051328884 -0.14903109 0.09554837
개 -0.028582815 0.19422957 0.008997638 -0.0052320114 -0.11765534 -0.019020984 0.039260708 -0.07426767 0.18823555 0.025638241 0.022580262 0.034336325 0.0077537764 0.020041885 0.044568352 0.014350835 0.056161463 -0.01711608 -0.021731026 0.06994134 0.03388807 0.08804958 -0.12923767 0.085745946 -0.04042827 -0.021642864 -0.08383081 0.06265182 0.017382585 0.013223322 0.09714815 0.00048130486 -0.01320604 0.12784627 0.024552116 0.09319868 -0.051066577 -0.049366534 -0.01700425 -0.021155352 -0.043023653 0.0775739 0.04916106 -0.06496975 -0.035428982 -0.042185433 0.017460722 -0.11880192 -0.061172407 0.07605369 -0.06402369 0.03199975 0.054760158 -0.09952203 0.077918984 -0.0010864129 0.1119554 -0.06801688 0.106342606 0.0053641563 0.18151231 0.0769808 0.020245932 0.036379408 0.023359811 -0.008726529 0.010305473 0.01954627 0.12285107 0.05851669 0.028558422 -0.03562367 0.005323732 -0.093643725 -0.012129034 0.0835956 0.025140643 0.016271392 -0.0603339 0.110398754 0.016711865 -0.014519236 -0.034755144 -0.143919 0.079983346 0.0055194423 -0.006258129 0.15749255 -0.09679171 -0.17308177 0.09081518 0.07024999 0.03998701 -0.087336406 -0.11817413 0.13549808 -0.046561014 -0.029191311 0.03555489 0.050232444 -0.06541917 -0.03837615 0.09076593 -0.058595385 -0.09873511 -0.015789097 -0.023145331 -0.06000718 0.05175703 -0.043637455 0.030496145 0.1015418 0.056869693 0.0035119457 -0.05209045 -0.090595424 -0.050734032 0.15632644 -0.0930786 0.027677098 0.05939863 -0.06956304 0.075011455 -0.0053423266 0.015038169 0.03781015 0.01929533 0.024005525 0.012045854 0.060292516 -0.0373686 0.008174809 -0.12997708 0.06999206 0.020489732 -0.06978717 0.056852497 0.062482193 0.06677675 -0.11943291 0.04707834 0.10365367 0.035008416 -0.0052445442 0.0653702 -0.07555123 0.015893728 0.061908323 -0.0009026054 -0.030239666 -0.05404843 0.0624105 0.04821588 0.002258507 0.006413211 0.028725075 -0.029874768 0.005619877 -0.1488434 -0.07635476 0.039167155 0.06546346 0.03205658 -0.03669913 0.027591323 0.07307213 0.011069721 -0.10119672 0.064838886 0.037410278 -0.041273188 0.15531684 -0.04201785 -0.03968215 0.077694856 0.00800804 0.1537643 -0.006596651 -0.036062893 0.1649616 -0.023673298 -0.02129041 -0.033023622 -0.11573642 -0.08012615 0.018731136 0.10211072 0.01790344 -0.034139596 -0.14981335 -0.08138173 0.041026037 0.00033491405 -0.006985682 0.012188025 -0.038285214 -0.0557546 0.0051328884 -0.14903109 0.09554837
개구리 0.063319474 0.03354827 0.11929984 0.0019494841 0.102139816 -0.08118168 0.07293785 0.012510439 -0.0038156998 -0.08245566 0.01747082 0.15350106 0.07211012 -0.041132227 0.0125165675 -0.0220937 0.034505945 0.06638048 0.00076948904 0.010985163 -0.0023918557 0.007271058 0.12342095 0.15086131 -0.05909201 -0.11056816 0.03509831 0.060516037 -0.111533925 0.04738579 -0.09608625 0.04320295 -0.01762557 0.12194374 -0.018698227 0.16914803 -0.0291363 -0.08554719 0.10899269 0.076178506 -0.16892815 0.020193562 0.06846831 0.056098286 -0.060152803 0.07436882 -0.063836694 0.09018759 0.06618001 0.11856251 -0.06331369 -0.12853812 -0.16013265 0.071670584 0.016746111 0.05273278 0.099075116 0.02421312 -0.06388802 -0.00076698273 0.073860385 0.017531697 -0.05661944 0.03621529 -0.003108402 0.04415369 -0.09539192 -0.06921212 0.06893906 0.067281276 -0.012153704 0.037581053 -0.048249595 0.11893036 -0.15832758 0.02482976 -0.11807605 -0.06377842 0.00172957 0.079246454 -0.007182157 0.08693329 -0.01332569 -0.020607846 -0.105484515 0.11699352 -0.08780611 0.04076321 0.08474257 -0.0055843033 -0.045101658 0.04319833 -0.05658522 0.0064543504 -0.03918959 0.02801978 0.07096169 0.18844353 -0.05950611 0.07041049 0.04507946 0.036833778 -0.0370095 0.03526663 0.0039740796 -0.091721445 0.12249287 0.021323953 0.13607004 0.0024513695 0.068338834 -0.0023661451 0.029033871 -0.07277485 -0.044263054 -0.08694069 0.036657594 0.0064519225 -0.069723554 -0.08467529 0.099066556 -0.06499553 0.019167956 -0.023185156 -0.020986222 -0.010915199 0.046081297 -0.02004198 0.037945442 0.047864165 -0.047081977 0.033954043 -0.06550881 -0.06963778 -0.0035674255 0.020755358 0.12769511 -0.042719256 -0.018330833 -0.072719134 0.03130783 0.05442987 -0.05146389 -0.021935413 0.060482975 -0.12024318 0.054112878 -0.04214539 -0.05512466 -0.03633043 0.12831245 0.055089977 0.08030309 -0.027745333 0.05275197 -0.101774044 -0.079529226 -0.059961595 -0.07946703 -0.0218076 -0.008829536 0.016752701 -0.0051814406 0.045445003 0.049307387 0.024299825 -0.042565733 -0.15462543 0.10694462 0.006332872 -0.020666968 0.029717332 0.022038186 0.025122242 -0.00810025 0.041397884 0.037279554 0.07303635 0.124139555 0.033045616 -0.03899144 0.13122918 0.022995308 -0.022329744 -0.1289832 0.009985939 0.1282142 -0.08031118 -0.031080553 -0.024719935 0.027279442 0.103488475 0.027277362 -0.055074718 0.0750865 0.11116954 -0.053603522 0.053008385 -0.036727883 0.0019717335
개미 -0.027550876 0.025123302 0.01679496 -0.019751579 0.087952495 0.031346634 0.07667919 -0.04428101 0.10805516 -0.13386256 -0.1144404 -0.009977194 -0.08866838 -0.016105851 -0.018999819 0.118029244 -0.0047994363 0.00023433338 0.017402379 -0.11729903 -0.070173495 -0.10791051 -0.035104774 0.0047173672 -0.080810845 0.052091524 0.068375595 -0.011972683 0.009691197 0.023290023 -0.0563882 0.06785452 0.085510366 0.14325063 -0.19873193 0.05608904 -0.09078828 0.010565334 -0.025605638 0.03545768 -0.027391218 0.0013896268 -0.04021833 0.20288081 -0.051640317 0.051140737 -0.0140583 -0.005435765 0.10135644 0.04006651 0.05279823 0.015563818 -0.041301683 0.06236432 -0.0016211902 -0.015599377 -0.06859729 -0.033194467 -0.039317258 0.00908035 0.08331433 -0.07881231 -0.14380708 0.058825854 0.091378324 0.024451302 -0.045813106 -0.16126452 0.020637808 -0.027481683 0.0760831 -0.021740304 -0.068875626 0.013066557 -0.15882216 -0.15084125 0.025145471 -0.02135961 -0.0565248 0.017401349 0.027951926 0.05602432 0.051182386 -0.14347634 -0.024468096 0.038468134 0.024857726 0.08377091 0.06090545 -0.03842469 0.07918358 0.018274054 0.09551064 0.0014201164 -0.070172824 -0.015858257 0.032874927 -0.061144155 0.029732581 0.07638608 0.022413133 0.08838489 0.0033119451 -0.035736915 0.026248526 -0.04769699 0.009947928 0.12722698 -0.03190085 0.07917462 0.08134647 -0.03564869 0.08034888 -0.040663496 -0.01781232 -0.1331413 0.025805155 0.024225809 -0.11102352 -0.01356038 0.07614401 -0.049866825 0.06427284 -0.07087393 -0.089058235 -0.03639257 0.07310737 0.16952915 -0.11463812 -0.04952131 -0.057909995 -0.07510679 -0.0020429445 -0.045499608 -0.005835628 -0.07795893 0.14975385 -0.014473347 0.07368688 -0.02413064 0.037868235 0.014818683 -0.010556669 0.028451728 0.09463174 -0.10999861 0.023378475 0.01590967 0.018159918 0.0072508813 0.009552609 -0.02108933 0.110601425 0.022375425 0.040688798 -0.047407456 0.025506662 -0.12392498 -0.06901199 0.052084133 0.020904213 0.017805891 -0.0884776 0.04282348 0.06381536 0.048618216 -0.043721195 -0.1623434 0.10181123 0.0059297886 0.031893235 0.021261262 0.028148757 -0.049264915 0.086358145 -0.04784254 0.029944638 0.02665898 -0.020328926 0.10618561 0.09159531 -0.02895735 0.066797815 -0.08740387 0.03866541 0.11449369 0.072099246 7.129223e-05 -0.15155087 -0.0371884 0.019568006 -0.0708278 0.17391339 -0.0949786 0.054421693 0.0014855049 -0.09167704 0.06571313 0.06518354 0.07166529
거북이 0.043570243 0.07165443 -0.09699682 -0.020304311 0.119231105 -0.09929238 0.08123809 0.014384654 0.105273776 0.009173324 -0.10107349 0.16038838 -0.1394992 0.07259646 -0.081316546 0.046235222 -0.12285586 -0.14341146 0.022325542 -0.1413436 0.0071074693 0.023378953 -0.035887472 0.10478786 0.055835895 0.048748415 0.06530123 0.063009694 0.01614811 0.011451929 0.063519396 0.025460355 -0.12701885 0.07784194 -0.08560609 0.049435873 0.057484772 0.022443503 0.025501138 0.0947821 0.034878872 0.09670457 0.0691065 0.0406366 -0.038490277 0.07434739 -0.04175018 0.0012936781 -0.03355406 0.04878499 -0.0269066 -0.010233136 -0.09399076 0.18246007 0.056834254 0.03521227 -0.06249689 -0.12760939 0.055454765 0.092404425 0.029484894 0.09072976 -0.11521645 0.049762502 0.018958103 -0.034266576 -0.03218335 -0.15298195 0.053161584 0.18806858 0.09500888 0.014232951 0.09275557 -0.04669152 -0.06313259 -0.16367516 -0.04673907 0.07859908 -0.0661178 0.07985878 0.025997851 0.005648842 0.07070288 -0.2240912 0.05780647 -0.058778312 -0.09355239 -0.04769738 -0.0034584792 -0.018353123 0.021014998 -0.060054842 -0.051184244 0.06542925 -0.004023682 -0.05299699 0.025316607 0.06804211 -0.05890359 0.0167938 -0.074132144 0.032535214 0.0743313 -0.11343021 0.10738919 0.010285367 0.097317785 -0.13314691 0.049045235 -0.011569066 0.07143132 -0.0043787323 0.04179389 -0.033914343 -0.0035849253 -0.035876136 0.08157423 0.0749617 -0.04127048 -0.06466845 0.051668886 -0.09330733 -0.007661954 -0.059968155 0.04374782 0.07564038 0.02189485 -0.08599307 -0.02957414 -0.05809524 0.062548645 -0.016485257 -0.09223617 -0.0016990675 0.050377544 0.037813973 0.029483616 0.0055997926 0.06495411 -0.0005502206 0.13390754 -0.030185523 -0.02715459 -0.02824988 0.024695167 -0.08064975 -0.038772468 0.15379341 0.01839226 -0.06769554 0.11366888 0.08467448 0.0818096 -0.034071624 -0.02554759 -0.069264136 -0.0011437793 0.00070778234 0.026396537 -0.048898745 0.051473748 -0.051023487 0.063181974 -0.048680563 -0.056254696 -0.0060804845 0.05230148 -0.08944281 0.057483677 -0.079376146 0.028230311 0.0014351917 0.04829358 0.011774335 0.016757425 0.04370137 0.0020523954 -0.043616146 0.017663889 0.06791501 -0.0022157473 0.10150911 0.000730919 -0.087399445 -0.04707338 -0.06447112 -0.049799632 -0.049401857 -0.12541679 -0.08132478 -0.09970167 -0.014235896 0.057026833 0.008718931 -0.058193266 -0.02728206 -0.010231326 0.06051351 -0.015139141 0.09546371
거울 -0.010158164 0.059067823 -0.055231333 0.02397039 -0.019803612 0.016465232 0.036231138 -0.09029875 0.13388765 -0.096974365 -0.07309681 -0.0037143403 -0.04615467 0.10891368 0.024885416 0.12098653 -0.026851626 -0.08756251 -0.028265389 0.13795397 -0.06532779 -0.01967709 0.15514196 -0.05314878 0.01936699 -0.037376255 0.011656257 0.08157095 -0.14326914 0.021949265 0.056285612 0.009303691 -0.008472776 0.11906514 0.06422153 0.0108777145 0.023522712 -0.1196756 -0.07000759 -0.014505152 -0.05013864 0.04809576 -0.014367053 0.019588735 0.053549092 -0.024381319 -0.0735108 -0.033208136 -0.12392526 0.033705313 0.026851984 0.118141666 -0.048827708 -0.06083188 0.033981945 -0.0139768105 0.052803192 -0.09976396 0.017274667 -0.020401318 0.14032328 0.06439748 -0.096669815 -0.018075923 0.10512617 -0.07110948 -0.071265444 -0.009135303 -0.043764014 0.072724134 0.10231304 -0.07506034 0.122619525 0.12654959 -0.019666363 -0.021201259 0.09835123 0.10486678 -0.07381645 0.005179735 0.17952488 -0.100801274 -0.022336278 -0.035271537 -0.09879998 0.09222069 -0.025716688 -0.05471528 0.018776126 -0.07369687 -0.13076505 -0.03392093 -0.082831815 0.046594933 0.009185567 0.15058666 -0.023176031 0.11784423 0.08008599 -0.065164715 -0.009198893 -0.06424124 0.06362257 -9.847628e-05 0.0027058213 0.017569141 0.12529366 -0.056182727 0.04161798 -0.1335582 0.008969131 -0.07650207 0.049030732 0.053370144 0.026178539 -0.19798824 0.08901162 -0.04886793 -0.19367371 0.026314393 0.09396777 -0.04812586 -0.061340816 -0.017222542 -0.040812157 0.07271922 -0.10017412 -0.010718603 0.0040056407 -0.03058244 0.069622606 0.073830396 -0.1476474 -0.15054616 -0.012536398 0.009137191 0.10516475 -0.014547371 0.04269168 -0.11345995 -0.075532064 0.017366303 0.018280594 0.0085198665 0.10061931 0.016921172 0.03396416 -0.019634211 -0.014211607 0.00796876 0.021817623 -0.124053046 0.026975688 -0.039907828 0.023381306 -0.075536445 0.040119886 -0.05773992 0.036501203 -0.11909907 0.025831774 -0.07945721 0.0020126188 0.056493014 -0.016128454 0.03502172 -0.0141446795 -0.13488692 0.08190232 0.039645422 0.09958611 0.06834833 0.10719587 -0.1053002 -0.0054589137 0.050441816 -0.022676641 0.042204633 0.07319258 0.0008160407 0.014467117 0.02471503 0.0026319264 -0.028982557 0.010425934 -0.025417835 -0.022180423 -0.03657098 0.09655134 -0.006170009 -0.025610903 -0.059316546 0.045835625 -0.00079782 -0.009446714 0.010373972 -0.08097418 -0.019708527 0.018439047 0.04089944
검은색 -0.1114098 0.12710327 -0.039677415 0.017461145 -0.022125881 -0.043627888 0.029536076 -0.028723337 -0.02985982 0.024841504 0.013427323 0.09415883 -0.10431219 -0.022335516 0.050480664 0.07916116 0.1355988 -0.04352646 0.0064640674 0.10003054 0.026225219 -0.030748412 0.07413541 0.08842089 -0.08443982 0.017390428 0.084810555 -0.10065223 0.04341126 -0.0158187 0.050086316 0.10492164 -0.007367286 0.15453535 0.038111173 0.026457805 0.002761877 -0.00053478056 0.060972635 -0.106659696 0.07784411 0.09269751 0.09024924 -0.031259052 -0.014100205 0.07931133 -0.036463395 0.06000053 0.030883726 0.06704982 0.084268 0.09090939 -0.050921794 -0.0059391963 -0.016427033 0.088944435 0.028370522 -0.12907413 -0.14370412 0.11867463 0.07983181 0.06553692 0.091211714 0.11746338 -0.004750666 0.025783435 0.04657894 -0.06362377 0.027012166 0.074855246 -0.019500189 -0.0022265564 0.09260986 0.11121962 -0.029344369 0.060364496 0.03443832 0.10435001 -0.08292167 0.04307681 0.11116234 0.06604778 -0.0074399905 -0.07150132 -0.047156032 -0.018104278 0.053422533 0.02568922 -0.065440305 0.07576788 -0.0567358 -0.06770999 -0.036931846 -0.06948674 0.018794255 -0.032133 0.12704489 0.03589701 -0.10429471 -0.03837939 0.032867048 -0.11220548 0.0020899293 -0.05838882 -0.09154157 0.038100462 0.021572024 -0.02076923 0.031022752 -0.056553923 -0.014752825 0.059759203 0.12595192 0.03474632 0.027144196 -0.17935018 0.027234258 -0.022522414 -0.18274324 0.0044986247 0.050254416 -0.0025364605 0.05140008 0.07376751 0.011235347 -0.1045227 -0.0781766 0.054180846 -0.0123495115 -0.047261614 -0.09597318 -0.0019333684 -0.11773489 0.011861407 -0.0861851 -0.03367673 0.067067094 -0.06173072 0.03802636 -0.09933628 0.08213887 -0.13917787 -0.060462646 0.019793676 -0.010045134 -0.08032518 0.052850246 0.091919966 0.05606952 0.050093092 0.012507512 -0.035594475 0.07651264 -0.02527345 0.006575508 -0.05746482 -0.057175614 -0.06219349 0.025219673 -0.025977548 0.13110335 -0.043924306 0.03639694 -0.04662725 -0.093645565 0.12090212 0.10200207 -0.18559395 0.1160871 0.028756127 0.007027172 0.049361452 0.037730377 0.018576533 -0.03830988 0.0031911565 0.12584305 -0.0995774 0.06315292 -0.055233162 0.028921384 -0.06540817 -0.05369687 -0.0514438 -0.07607086 0.0699447 0.015826285 0.009279217 0.10105357 -0.08406689 -0.07828917 -0.022987152 -0.029780032 -0.06867116 -0.05548368 -0.1105094 -0.07861598 0.07743468 -0.07180845 0.0853859
겨울 -0.074192464 0.039725497 -0.06737794 -0.020445071 0.029881183 -0.11426081 0.109693624 0.011329373 0.049271446 0.01481774 0.08424567 0.09970134 0.017648427 0.045825236 -0.16798867 0.11810134 0.014450262 0.012491911 -0.07733789 -0.043034792 -0.027953235 0.07513636 0.034715477 0.08521356 -0.033670235 0.025773708 0.025020802 0.005799128 -0.02253328 0.050367627 -0.041766383 0.047841318 0.14610983 0.009161948 0.029994387 0.063719876 -0.04116506 -0.15158264 -0.029093347 -0.040430322 0.03360501 0.019189382 0.0061569833 0.024188977 -0.086230755 0.04244317 -0.025537087 0.04907981 -0.04329111 0.050489184 0.027122004 -0.0041824873 -0.042023785 0.10392325 0.17625031 0.013133096 0.018645527 0.02992377 -0.02955532 0.020621182 0.07957444 0.03489687 -0.02600704 0.15664442 -0.040775318 0.038238775 -0.23554423 0.051062472 0.016862772 0.05329095 0.050612632 -0.06484597 -0.03126576 0.05249233 -0.0906524 -0.11745151 0.06870052 -0.032037694 -0.12867042 0.019732729 0.106607504 -0.0025546926 0.026711779 -0.06785797 0.0028323028 0.0953398 0.056246616 -0.11135851 0.00647422 0.046910632 0.00036408394 -0.022834534 0.055163644 0.08310502 0.034364548 -0.032588076 0.08593832 -0.10360494 -0.05298638 0.051303703 0.023176596 0.036792204 0.025132144 -0.11261101 0.020149503 -0.11272961 0.01968513 -0.023799883 0.0034501737 -0.051565956 0.03670272 -0.14552118 0.094836585 -0.022935959 -0.038253058 -0.06873313 -0.025689855 0.007790713 -0.051372707 0.15540053 0.08624694 0.032329056 0.021568418 -0.055250164 -0.13210236 -0.028639188 -0.08948587 0.1376668 0.04060013 -0.07020046 0.011217923 0.05086949 -0.032906927 -0.04099822 0.020913243 0.07663629 -0.04452421 -0.04742247 0.07554955 -0.13225922 0.01686474 -0.117270924 0.01253358 0.06584728 0.055433176 -0.032454927 0.03613967 0.023037517 0.051667303 -0.048274722 0.013988531 -0.01990679 0.0651872 -0.032910973 0.09823698 -0.11459503 -0.10207347 -0.019897519 -0.0014763888 -0.057869997 -0.08934437 -0.018505989 0.053541884 0.11925386 -0.06854096 0.08747491 0.008003211 -0.08316081 -0.07155108 0.006290023 0.009596943 0.025552854 0.049130213 -0.0821269 -0.016248083 0.033216346 0.1411804 -0.027941914 0.06416029 -0.028304162 0.085951254 0.0023283006 -0.0010649916 -0.0037038017 0.10395532 0.14656615 0.0063560316 -0.09626429 0.033719834 -0.104566626 0.06382068 0.07724517 0.23050697 -0.1270387 -0.0021814983 0.06486619 -0.091759086 -0.016688926 0.0006528234 0.011134099
경찰관 -0.110676214 0.058725093 -0.06780134 0.08030116 -0.08930791 -0.1023286 -0.012667746 0.01518603 -0.01958749 0.04189405 -0.0009999955 0.14837214 -0.08029723 0.028154803 0.087017916 -0.02160178 0.15776666 -0.09746153 0.09955899 0.028877042 -0.06205437 -0.029747609 -0.047057036 0.016418945 -0.14632551 0.036877666 0.07060484 0.030787135 -0.021805754 0.009671669 0.0668048 -0.057079 0.0072354563 0.01986644 -0.02154871 0.056407593 -0.072970964 -0.04873359 -0.092033066 0.04828148 -0.0027936976 -0.005689752 0.028508186 0.15291998 0.03790565 -0.020919545 -0.11138987 -0.06191071 0.035427537 0.07095036 -0.033984534 0.040408313 -0.13937104 -0.005526345 -0.030804325 -0.021994503 -0.002069479 -0.14851728 0.010804094 -0.0068720775 0.10594888 0.06869892 0.05786951 0.13000281 0.006069732 0.06716677 0.039129842 -0.107355535 0.10430229 0.0111249145 0.00899108 0.051234778 -0.05487544 -0.018239867 -0.08733937 0.10494005 0.05395969 0.0045582354 -0.073030636 0.077096395 0.012033964 -0.038108986 -0.026142063 -0.06458798 0.11872154 0.08896091 -0.018399468 0.03850215 -0.11149693 -0.027070586 0.011290163 -0.06932146 0.0338448 0.09045401 0.0071940525 0.03276746 0.03246049 -0.0071199867 -0.022942575 -0.18307056 -0.10321243 -0.012249702 0.0037349171 -0.04365998 -0.0016234346 0.076255046 0.002500087 -0.17646752 -0.018573163 -0.04847352 -0.01778904 -0.03541231 -0.049276307 0.1762406 0.07210138 -0.096864775 -0.017735234 0.07191867 -0.00386328 0.0058452752 0.083070025 0.03627674 0.037331734 -0.10458348 -0.056588583 -0.079461046 0.0747536 0.110747926 -0.057835124 -0.0061781043 -0.09587682 0.08273433 -0.08998766 -0.11752165 -0.02062225 -0.006714246 0.04223024 -0.11928194 0.10094969 0.1140276 -0.02030526 -0.11916038 -0.03629221 -0.011356788 0.0419854 -0.033709243 0.009493136 -0.079977244 0.011094193 0.028345125 0.116024375 0.073943935 0.1263695 6.6683235e-05 -0.007904995 -0.074998684 0.02185094 0.05273525 -0.15615518 -0.08305063 0.10591548 0.08668098 -0.10157615 -0.059065707 -0.115863524 0.06421618 0.04574714 0.07105252 -0.04598117 0.040283315 0.012507336 0.02068637 -0.028058784 -0.045135897 0.06305755 -0.121363685 -0.014021361 -0.011211652 0.10360903 0.019612515 0.01036412 0.012342874 0.029864259 0.00015288363 0.10990388 0.03142907 -0.026256502 -0.06923821 0.07332213 -0.08582392 -0.11750471 0.032243647 -0.068137534 0.088926286 0.07691761 0.03953308 -0.04334098 -0.0020693345 0.095450744 0.0030904275
경찰서 -0.14603698 -0.019939106 0.014576285 0.0898282 0.076369464 0.06771849 -0.15926906 -0.017497608 0.1514172 -0.08366643 0.008851264 -0.018645804 -0.029840281 0.07213535 0.028000675 0.0021189451 0.008200981 -0.05306999 0.16359313 0.1970699 -0.16935878 -0.035215043 0.03631653 0.09212373 -0.06156764 -0.008820766 0.109755106 -0.015895506 -0.0495327 -0.0094252415 -0.0006471522 -0.11845093 -0.07369111 0.019300928 -0.06552193 -0.009934071 -0.13089646 0.0110329 0.034822248 0.08408391 0.06576022 0.048133355 0.069131605 0.070669085 0.028984442 0.06453318 -0.15101705 0.010505177 -0.03785068 0.06326057 -0.048680417 0.15413187 -0.11040992 -0.046111234 -0.07956499 -0.006304151 -0.09090334 -0.0015222938 -0.01985955 0.007825252 0.0470003 0.036993414 -0.050031584 -0.015185771 0.028983256 0.06609486 -0.0015292763 -0.11843029 -0.011344998 0.10022361 -0.112434894 -0.032394513 0.10232738 0.03650165 -0.020915136 0.010775221 0.05244199 -0.020511188 -0.12909888 0.0529264 0.05415652 -0.019339496 0.024922876 -0.044236027 0.087184966 0.07298598 -0.028506918 -0.096173674 -0.040403966 -0.075630635 -0.024183804 -0.04293304 -0.028499322 -0.05098616 -0.08061639 -0.06449687 0.022405429 -0.04639675 0.12529932 -0.06478238 0.056861226 0.0034416637 -0.04245955 -0.017813554 -0.059964184 0.10414088 0.03035222 -0.056187663 -0.06273392 -0.06776383 -0.01129428 0.1030026 -0.036719292 0.12754004 -0.014171268 0.0063456614 0.011810442 0.13116159 0.110628985 0.032396413 -0.027167855 0.08393224 0.031438515 -0.076847464 0.00017557941 -0.047525056 0.02544834 0.026907971 0.04224476 -0.04493214 -0.16556256 0.02920469 -0.11560692 -0.03604952 0.047025695 0.0057077915 0.08281391 -0.061778154 0.009251819 0.019335913 -0.08560406 -0.11406137 -0.042052276 -0.10140484 0.085549 -0.082807735 0.015663033 -0.03912424 0.053142376 -0.033594973 0.13894437 -0.006242087 0.00917542 -0.065065764 0.10856272 -0.07398256 0.049330488 0.0052360822 0.010311249 -0.058032963 0.019609729 0.08162888 -0.039901994 -0.028065942 0.044981267 0.0014780943 0.037489925 0.07228156 0.06627358 0.043800272 -0.04662863 -0.031149914 -0.022314766 0.011819509 0.055757366 -0.087821744 0.11470859 0.0341793 0.12634362 -0.013601277 0.032794427 -0.021322763 0.008238053 -0.15612337 0.12659235 -0.078282885 0.05794966 -0.05543079 -0.02487873 -0.10137304 0.0004887717 0.07258844 -0.08471 0.048038892 -0.0018085947 0.029029535 -0.14376138 0.06622018 0.10068689 0.008673355
계란 0.014723349 -0.021759663 -0.0037827548 0.08944054 0.016849853 -0.057293642 0.05408683 0.09527312 0.121969275 -0.04582325 -0.0040036156 0.12396345 0.045316424 0.054719094 -0.020321999 0.1244409 0.0064901994 0.033152822 -0.13180588 -0.06362532 0.0977728 -0.01360184 0.019207578 -0.031563442 -0.03513706 -0.1083404 -0.06351777 0.036150273 -0.041477133 -0.06844116 0.023271373 -0.025136802 0.053364027 0.110764325 -0.1947826 0.10787531 0.040182356 -0.13271664 -0.0142723955 -0.0006884927 -0.036274385 -0.050299663 0.044737164 -0.012797543 -0.102907754 0.05037475 -0.033589862 -0.017006077 -0.028197631 -0.014324823 -0.036158003 -0.021926064 0.037337948 -0.0066294163 0.0023886631 0.12011311 0.07119326 0.016506625 0.11665433 0.083483845 -0.09092546 0.03973935 -0.038705382 0.0033825499 -0.01110905 -0.060020562 -0.0225627 -0.114975065 -0.032464467 4.7140555e-05 -0.0051719216 -0.03615955 -0.048878122 -0.08037862 -0.02896063 -0.032290004 -0.0081448145 0.095914215 -0.024762258 0.055831466 0.11735108 0.14013396 -0.09020707 -0.05254339 0.035109457 0.04426015 0.046716984 -0.10181615 0.12829521 -0.008510922 -0.08405229 0.052775048 -0.057702415 -0.049750436 -0.041224275 -0.033264566 0.08398604 -0.07578097 -0.0033222607 -0.064580455 0.019039541 -0.062163584 0.022871874 0.15142326 -0.045884643 -0.032216243 0.08723965 -0.0050797653 0.020021724 0.049787536 -0.078935 0.044832565 0.04826728 0.008504717 0.06663271 0.06548876 -0.10047013 0.060949855 -0.03822307 -0.020539416 0.048229296 -0.057237323 0.012934928 -0.11751229 -0.03980494 0.06460872 -0.10141201 0.051897433 0.0153955845 0.009568079 -0.12253086 -0.015999535 0.08911414 -0.11605145 0.047219396 0.06769671 0.09194751 -0.01680425 0.118830256 0.0065798378 0.07028826 -0.10468706 -0.107810825 -0.027531583 0.14334738 -0.08716457 0.018508313 0.034506347 -0.0737455 0.00071642664 0.09079892 0.12487021 0.086587735 0.06036794 -0.033756156 -0.032013953 -0.11106909 -0.06004839 0.0013674364 -0.08275596 -0.05708031 -0.0359937 0.0051608356 0.025643626 0.043292213 -0.026566735 0.043472197 -0.046974927 -0.033306748 0.004592439 -0.053709418 0.048230175 -0.09898587 -0.018259801 0.028090304 -0.11636393 0.15776797 0.019646496 0.09608427 -0.024924133 -0.07844098 0.13058907 -0.0068521327 -0.08283502 -0.020406846 0.19617014 -0.08315723 -0.13703051 -0.037644472 -0.065699 -0.024201768 0.027383177 0.054098316 -0.0020226708 -0.088047266 0.056307152 -0.15031001 0.018616127 -0.09529234 0.12799819
고구마 -0.017828703 0.003245355 -0.059080612 0.030887762 -0.00992571 -0.11526995 0.12014689 -0.03753525 0.08231877 -0.016853336 -0.053265166 0.14401676 -0.029594975 0.03415783 0.040463623 -0.043206684 -0.1367431 -0.058966864 -0.07730267 -0.08121284 0.013196069 -0.055803914 0.06825271 0.024693068 -0.099205635 -0.13241899 0.00091944775 -0.20070131 -0.08544129 -0.0260318 -0.14162292 -0.04741327 0.0140275555 0.01853323 -0.04676809 0.06791919 -0.020154705 -0.0902617 -0.085568525 0.07172422 -0.0628037 -0.021385426 0.066231474 0.058361657 -0.026747657 0.14852661 -0.05922683 0.005038715 -0.026637 -0.07490396 -0.016087912 0.02673507 -0.032885365 -0.025603078 -0.029709166 -0.017440291 -0.037214097 0.003987963 0.06738401 0.077867456 0.023318999 0.034004766 -0.0061032274 0.124779336 -0.026253337 -0.1244414 -0.10295699 -0.09778783 0.063145615 0.049968146 -0.008898128 -0.08476166 0.083973356 0.042587347 -0.036780957 -0.11967687 0.02210683 -0.075523734 0.053746674 0.044502564 0.12806024 0.14794064 -0.036882337 -0.02250286 0.06714856 0.066324025 0.06311204 -0.033527013 0.12830031 -0.014317037 -0.0689699 -0.05633711 0.14627257 0.01581831 -0.087175615 0.030187804 -0.02386412 -0.04817684 -0.103625804 -0.074533544 0.035686735 0.054196157 0.040573843 0.02623125 -0.10630194 0.021075537 -0.04083779 -0.025634885 0.015020593 0.027107907 0.15832843 -0.043087415 -0.025218533 -0.008775497 -0.025349071 0.036561184 0.042576525 -0.021793319 -0.10338748 -0.015322907 -0.015870325 -0.07670808 0.0044412226 0.0031890096 -0.017795615 -0.032255646 0.11130434 0.004034435 -0.09757977 -0.006335412 0.0016383488 -0.02646825 0.033130538 -0.1308139 -0.06117474 0.0059671015 0.080813274 0.008202699 -0.004206343 -0.03187331 0.0482473 -0.10652016 -0.010197763 0.020241046 0.028172752 -0.10347274 0.10268907 0.012456421 -0.037367824 0.042645883 -0.0327027 0.058100585 0.06624075 0.062177736 -0.008926775 -0.1450699 -0.11132578 0.015881458 -0.019390231 0.029933134 -0.03318642 -0.047570094 0.03855989 0.0272528 0.033379026 0.05796828 0.0071404176 -0.121592976 0.08127712 -0.03440433 0.03012132 0.04055264 0.03247895 0.04698411 -0.029677138 -0.04262821 0.11399153 -0.013048324 -0.021263039 0.06250993 0.1379842 -0.067485385 0.06922082 -0.04144785 0.07864758 0.103634864 0.014770606 -0.20875666 0.008695562 0.025039624 0.0012736712 0.10268775 0.057445027 -0.1847609 -0.052388728 0.053104367 -0.13692 0.057523217 -0.13119115 -0.117249005
고기 -0.019999336 -0.028019665 0.02503479 0.030377084 0.030554092 -0.010383062 -0.08967542 0.022702973 0.06640664 -0.056714248 -0.14390196 0.1445953 -0.030502832 -0.022925125 0.01901042 0.04090965 -0.031889785 -0.025125964 -0.09924233 -0.030879539 -0.0033786935 -0.11238782 -0.041858763 0.093166694 -0.04402102 -0.031974684 0.12742752 -0.08900744 -0.039249048 -0.0061606094 -0.07566892 0.04403811 0.044843312 0.016161865 -0.13241307 0.042427965 0.013248917 -0.17542839 -0.061757743 0.09483478 -0.032228313 -0.0019235162 0.07682922 0.057823278 0.053612757 0.047384687 -0.0782426 -0.10305718 0.064547665 0.035854947 -0.015835084 0.0098119145 -0.03166205 -0.016539212 -0.053984128 0.057486087 -0.012913085 -0.091957815 -0.08287334 0.005693584 0.13918498 0.004015704 0.032365806 0.18214104 -0.0063416213 -0.0777356 -0.07013419 -0.14937983 0.05512012 -0.014841364 0.04879353 -0.022821218 0.010222714 -0.11733547 -0.120191865 -0.010535827 0.0057384362 0.0626337 0.0132931555 0.09228246 0.10038366 0.09229021 -0.056563675 0.020007132 0.02926592 0.08124851 0.13810639 -0.036121126 0.09537701 0.022888498 -0.04379249 0.062038336 -0.047407378 -0.09949409 -0.0243014 0.046922278 0.08608776 -0.021759283 0.026811318 0.07321433 -0.06784966 -0.03148184 0.049407046 0.105776094 -0.13549562 -0.061643474 -0.0036043436 0.033483915 -0.0013007461 0.020453146 0.03912917 -0.005596431 0.027754286 -0.1365953 0.0068867113 0.1380207 0.008525452 0.12544948 -0.025246399 -0.047999267 0.06657217 -0.07526979 -0.01682723 -0.05855907 -0.018333577 0.04586718 0.015673375 0.15463638 -0.012096317 -0.0029834316 -0.051868323 0.06941922 -0.03237275 -0.05245754 0.005644033 0.023993067 0.09768077 -0.0058039795 -0.029703764 -0.001159397 0.08599352 -0.101193406 -0.20875905 0.03103759 0.051714007 -0.10953141 0.06264197 0.07152248 0.010846403 -0.048218194 0.07821457 0.073709294 0.08265629 -0.024063844 0.036856122 -0.038571455 -0.015999036 -0.11887353 -0.003973308 -0.04816987 -0.03404777 -0.026841754 0.032947287 0.09069634 -0.012578746 -0.067950845 -0.03707664 -0.2537978 0.085261196 -0.057259686 0.06963787 0.017742727 0.021774663 -0.014476057 -0.016731303 -0.053559367 0.096236944 -0.04318885 0.12074451 0.02576898 -0.05585778 -0.08303433 0.07823299 -0.05575713 -0.120073855 0.13816914 -0.0015223356 -0.10399641 -0.013089717 -0.09521763 0.02050339 -0.02239141 -0.061578866 -0.055081673 -0.01907746 0.059557036 -0.063147895 0.0127181895 0.004393105 0.018544381
고모 -0.11280018 0.108302906 -0.03261435 0.026525276 0.004798626 0.08960888 0.024843965 -0.0047429837 0.028320614 0.03816133 -0.1480577 0.027012745 -0.109316684 0.04575081 0.06724461 -0.12231399 0.039455913 0.077298634 0.16379932 0.0005018848 -0.040443514 -0.095455356 -0.043541532 0.053001747 0.008524224 0.038910083 0.04901312 0.044549696 -0.1168775 -0.013176049 0.14582661 -0.06626573 0.0006950727 -0.035199355 0.0081214355 0.08836788 -0.029781146 0.013622642 0.011525102 0.022342453 -0.06486502 0.06098502 0.12277259 0.11985318 0.002477397 0.064392716 -0.072718896 -0.13744704 -0.035540186 -0.017501416 0.052937984 0.081279784 -0.012479826 0.05629894 -0.019699624 0.011229257 0.13432202 -0.047994982 -0.055742938 0.08341471 -0.016962232 0.020800713 -0.17198572 -0.016229559 0.08706707 0.058894753 0.010319022 -0.18695885 -0.029313201 -0.05403774 0.09523208 0.058058977 0.010768543 0.13348936 -0.117468394 -0.022605399 -0.06791652 0.0598782 -0.13536696 0.03975873 0.061958082 0.065664865 -0.07887257 -0.04364808 0.011766052 0.02025123 0.0413794 -0.050017335 -0.082948424 0.017026348 -0.08792798 -0.04617929 -0.0039079357 0.03675688 -0.05507955 0.105267614 0.136064 -0.1795704 -0.011788192 -0.005937474 0.04460058 0.041843396 0.028532675 0.007988779 -0.077255644 0.03435527 -0.07451071 -0.040363546 0.11638651 -0.06759708 0.0835441 0.061261885 -0.038771752 0.116362825 -0.10246972 -0.10812325 0.027636042 0.05310331 0.039067514 -0.047643974 0.016536452 -0.053491704 0.011141899 -0.09655242 -0.13952568 -0.0018433376 0.09394747 -0.01924591 -0.0140927015 -0.021980852 -0.046996582 0.041776933 -0.11000706 0.09870084 -0.017195497 0.06901399 0.024596805 0.05097233 -0.0031223397 -0.032424513 -0.1248857 -0.030003589 -0.042328574 0.037468452 0.07814666 -0.0871379 0.0061205383 0.097955205 0.012885667 -0.052908693 0.08661201 0.07313138 0.06743362 0.023794884 0.061776765 -0.037791215 0.018256834 -0.058210593 -0.046844337 -0.057573795 -0.010354103 -0.008682489 -0.0030733023 0.07595047 0.014280732 0.09292726 0.008134583 0.040243916 -0.029931728 -0.070576705 -0.04808741 -0.13120241 0.10138346 0.027496677 -0.057235662 -0.056324285 -0.0013131477 0.093323335 0.11858374 -0.018379332 -0.0837356 -0.066257216 -0.034726012 -0.103581525 -0.01358081 0.083078444 0.0031593514 -0.0009601572 -0.003985386 -0.044479493 0.020801129 0.09709575 0.110994264 -0.0016235311 -0.037605327 0.02439347 -0.18482932 0.083787106 -0.038528543 0.047341775
고양이 -0.059602115 0.083895296 -0.018251734 0.036325205 0.079862416 0.07350998 0.03852027 -0.07059389 0.12588073 0.0367602 0.032611065 0.11390126 -0.05725253 -0.020545322 0.0038140258 0.07071015 -0.016991008 0.0013953889 -0.06572567 -0.04681684 0.0011260402 -0.046438284 0.11128525 0.024841279 -0.0160379 -0.08332612 0.12975447 -0.011017306 -0.11003331 -0.038308103 -0.055021137 0.19028035 -0.06554741 0.050320998 -0.039156046 0.03127848 -0.053905077 -0.044122122 -0.033617165 0.057949822 -0.009787533 -0.079615615 0.16039015 0.033189923 0.07740844 -0.026579065 -0.12057605 -0.12025683 0.0037981134 0.07699355 -0.0381824 -0.022649558 -0.09840867 0.014428577 0.061635144 0.06381616 0.15692063 -0.06795004 -0.091561414 0.048060298 0.053728998 0.13205925 -0.023958629 -0.00660771 0.12728404 0.007216262 -0.0723513 -0.19239838 0.03910034 0.041898236 -0.0017798456 -0.015010948 0.030518211 0.010037218 -0.109581366 -0.12996738 0.04208449 -0.016369522 -0.0066965003 0.08875601 0.050735645 0.10572045 -0.028791081 -0.05547066 -0.089357875 0.15607487 -0.0056354934 0.05228258 0.04739207 -0.048396956 0.028559053 0.04439145 -0.015987692 0.04795906 -0.0069602807 0.011134482 0.098014124 0.031660188 0.037354317 0.026259603 -0.029555466 0.061583072 0.0056803008 -0.008703276 -0.01213833 -0.0032037292 0.042762652 -0.04104569 0.059823 -0.07669686 0.029159468 0.13163735 0.044306677 0.035529338 0.10690578 -0.11571145 0.016154762 0.03243232 -0.02716519 -0.14772163 0.15670435 0.044798344 0.03788643 0.009300469 -0.050667826 0.039789155 0.0074277758 0.057010088 -0.005330079 0.028326785 -0.0011534938 -0.0038586392 -0.056215912 0.006874857 0.053736504 -0.014852475 0.10866778 0.05850083 0.061589614 0.009132939 0.0071333814 -0.12529485 -0.056252483 0.003398216 0.119708 -0.13769865 0.03726519 0.03366512 0.011543874 -0.14415836 0.14826609 0.051460795 0.029057259 -0.10817079 0.072670035 0.07039795 -0.096760005 -0.13892902 -0.10957507 0.008036086 0.040825047 0.03152189 -0.0574785 0.12851876 -0.020054212 0.06519113 0.056557413 -0.06553603 0.026716635 -0.0048302743 -0.013703478 0.042511005 0.066378154 -0.09839171 0.051460795 -0.07676516 0.03617383 -8.968776e-05 0.14300744 -0.02930479 -0.08140281 -0.031697 -0.037952553 0.08256247 -0.025472937 -0.01279881 0.08876691 0.0066994554 0.036238745 -0.028623965 -0.07730696 0.09424088 0.055134486 -0.068541974 0.024364628 0.08854239 -0.0830224 0.11911485 -0.008338159 0.061670262
곰 -0.016691558 0.104188494 -0.021984063 -0.038914587 0.13835163 -0.024086323 -0.0069485307 -0.079713255 -0.00043710528 0.02489871 -0.056176804 0.10814899 -0.12241009 -0.015857449 -0.09508988 0.08169665 0.0145791685 0.023514885 -0.11420928 -0.053272236 -0.14055702 -0.06837658 0.054468457 0.0199476 -0.029599765 -0.088771395 0.13144132 -0.045977764 -0.116815925 0.036227245 0.037794296 0.18292652 -0.014972628 0.04927353 0.019843338 0.113682576 -0.07498143 -0.029763687 0.044273943 0.011658991 -0.07067072 0.018698381 0.034356486 0.06810782 0.016258955 -0.006627 -0.05562244 0.012595073 -0.008399154 0.10087865 -0.0052604484 0.0026729393 -0.12757461 0.06327894 0.1155928 0.031914767 0.04024707 -0.04021439 0.007247887 0.008305252 0.034796957 0.13059986 -0.0025597033 0.0023573188 0.026138825 0.051162887 -0.08018943 -0.14196695 0.021559553 0.093780026 -0.05296149 0.007739876 0.0076149744 0.007073106 -0.107637614 -0.07992419 0.010200649 0.10256211 -0.005919727 0.09508561 -0.027378792 0.11711485 0.034520406 -0.13738774 -0.079163425 0.055472597 0.0038458777 0.13491483 0.09655034 0.019507702 -0.011779543 0.056549143 -0.045494296 0.114837304 -0.05008785 -0.05330794 0.15435353 0.039659776 0.05896974 -0.040288806 -0.15535918 0.014258718 0.033283457 -0.030299949 0.035937615 -0.0012361687 0.051340386 0.0115119135 -0.03362236 -0.06166714 0.08361996 0.017149456 -0.06512381 0.029748352 -0.040873844 -0.1353098 -0.0066976715 0.1450475 -0.06440578 -0.1075544 0.07821032 -0.010018249 -0.035177093 0.040577177 -0.05087251 -0.030840484 0.09316809 0.19702923 -0.0659761 -0.028793236 -0.0887993 -0.05694688 -0.18730563 0.03442663 0.03544158 -0.0537816 0.09173278 -0.0075029954 0.042469308 0.0012888899 0.033124816 0.039197426 -0.10983622 0.05448203 0.06793988 -0.14057538 0.090819396 0.045479465 0.015208051 -0.06738048 0.081055544 0.05308619 0.056365114 -0.059544973 -0.010194916 -0.06956551 -0.060918186 -0.011409464 -0.03973344 -0.059856724 -0.021791331 0.030895043 -0.0028075955 0.06625994 0.07766174 0.009958186 -0.038012773 -0.11766921 0.07311696 0.06554191 -0.030870402 -0.010895502 0.113057815 -0.062392972 0.009379159 -0.1441022 0.021103265 -0.058844287 0.06593034 0.0020997245 -0.0014254419 0.06040254 0.046632946 0.008547437 -0.08888905 0.0808509 0.06199448 -0.010558585 -0.049451776 -0.04756769 -0.048155498 -0.016013097 0.06433488 0.0067481804 0.08858409 -0.058571003 -0.096232295 0.0067752576 0.008749598 0.1446319
공 -0.0020743306 0.046548653 -0.009487648 -0.058989372 0.044382114 0.06083878 0.0054889084 0.074877106 0.045210823 0.023006393 -0.017169654 0.057984315 0.06029285 0.069408625 -0.030611109 0.045400057 0.0058596795 -0.055704296 0.009516171 0.01817496 -0.0074621015 -0.008951657 0.045180764 0.058945514 0.05239775 0.015491661 0.082606286 -0.0073936144 0.02018149 0.006345249 0.036024813 0.08987602 -0.11690622 0.15127392 0.10697553 0.24729133 -0.01840842 -0.1086676 -0.028465336 -0.11267864 -0.017985571 0.05897802 0.05826801 -0.052282125 -0.0762545 0.014682859 -0.052126937 -0.0743962 -0.09494058 0.008532059 -0.04210731 0.014231181 0.117746264 0.043759204 0.019717788 0.009849156 -0.08625541 -0.12701845 0.14185666 -0.0018202869 -0.05724424 0.0488302 0.08812047 0.09426614 -0.055634364 0.00032994914 -0.10655658 0.09453022 0.006190886 0.050744325 -0.0133615285 0.012478475 0.025926892 0.030203564 -0.024043992 -0.011931289 0.020038627 0.052463077 0.04111176 0.15260592 0.011388643 -0.012635721 -0.07289305 -0.09825387 0.010325187 -0.07226555 -0.036705077 0.07247993 0.043947212 -0.1100404 -0.05626188 -0.09434558 -0.00131945 -0.03455633 -0.053206217 0.10531259 -0.14672156 -0.07429192 -0.026142197 -0.12637408 -0.13502489 0.10967297 0.07026923 -0.06365338 -0.0706161 0.009695008 0.071465366 0.10813947 -0.0375574 0.092936285 0.004071029 0.079918355 -0.087854244 -0.04417908 0.06844343 0.10643206 0.0822131 0.05461428 0.101319045 -0.074275054 -0.052222934 0.06801252 -0.06217109 -0.09261456 0.08618579 -0.011746992 0.08106725 0.16810536 0.051108073 -0.048060995 -0.1811184 0.006243608 0.03268852 -0.032027576 0.057280432 -0.045744482 0.07878448 -0.00298991 0.07366318 -0.004706115 -0.07878754 -0.049734358 0.019957813 0.027889995 0.07432321 -0.07395609 0.101526685 -0.06695348 0.023660831 0.0001372589 0.017584775 -0.023434456 0.112132095 0.001935717 -0.113163225 0.039493296 0.009093936 0.009569966 0.07892832 0.015651667 0.07942549 -0.10859185 0.024986638 -0.07159111 0.059743244 -0.036831744 -0.10357728 -0.013474119 0.062153917 0.033257756 0.025323888 0.019600414 0.0567618 -0.018051388 -0.03597421 0.086706266 0.13222532 0.032009482 0.0532467 -0.09964814 -0.0580294 -0.095616244 0.020812651 -0.013953493 0.13399805 0.05026679 -0.07530158 0.08806127 0.09846396 -0.09064952 -0.0747397 0.12366529 0.017195232 0.06638609 -0.000744008 -0.034420766 -0.05314334 0.012915616 -0.005754818 0.112001754
공룡 -0.057007354 0.05807575 0.036892433 -0.011493129 0.057301864 0.005810265 0.08930843 -0.10480328 0.07947585 -0.062194105 -0.01804815 0.03752636 -0.061744362 -0.0075167604 -0.12125232 0.07564242 -0.10701986 0.11585904 -0.07113086 -0.002659255 -0.08062585 -0.07909038 -0.11212729 -0.053429008 0.03822001 -0.02439512 0.089249164 0.023721531 -0.11404252 -0.029325204 0.010952342 0.12244221 -0.0675557 0.106075004 0.015254131 0.18190184 -0.0136263 0.014721436 -0.037211563 -0.013541868 -0.073227994 -0.00095139595 -0.016150586 0.018095266 -0.0146742975 0.07815876 -0.06906951 -0.013271087 0.00810528 0.117000386 0.044786084 0.15446611 0.019120924 -0.012783298 -0.0050614746 0.023799947 -0.009527751 0.00784674 -0.013533 0.013637675 0.050339155 0.049930215 0.03750334 0.005510056 0.022470044 -0.14167018 -0.05401324 -0.12750883 -0.011807311 0.17404808 -0.03990592 -0.081691965 -0.07723602 0.056701675 -0.06246377 0.014445891 -0.040896818 0.032787982 -0.05145109 0.14169024 0.09797278 0.019656308 0.08906954 -0.06493975 -0.06881991 0.008727308 0.042561073 0.13710824 0.051079076 0.05161157 -0.07581703 -0.027576152 -0.019189104 0.054633263 -0.06896899 -0.052478913 0.060465112 0.015515155 0.023157129 0.006726917 -0.082591005 0.085103005 0.07366839 -0.087654896 -0.019124342 -0.0685124 0.111118615 0.009650023 0.09958233 0.002192919 -0.012640238 0.0049421205 -0.028858136 -0.032648474 0.045466516 -0.16350521 -0.037620958 0.063051194 -0.068812154 -0.021123754 0.10191562 -0.09251363 0.028146708 -0.020520372 -0.09274067 -0.06665029 0.07501078 -0.0020516613 0.024993716 0.059691228 -0.092165776 0.032426227 0.03862553 -0.103881456 0.005582726 -0.01929665 0.07369893 0.07528933 -0.027559511 -0.04149382 0.056724925 -0.04026312 -0.057318963 -0.030528776 0.15899044 -0.1039389 0.095240586 0.08051712 -0.028954104 -0.04854565 0.073971786 0.04410315 0.022075305 -0.008214992 -0.21192846 -0.051244795 0.07207456 0.04104658 0.029224679 -0.08916916 0.07858844 0.034656253 -0.06655136 0.13753518 0.01432093 0.013598012 -0.042825267 -0.16178897 0.12943569 0.011040125 0.07700465 0.052731026 0.040601626 -0.07117599 0.041692358 0.093270876 0.05588744 -0.026686693 0.020651236 0.15449551 0.019163916 -0.009155009 0.041307583 -0.071105555 -0.032599013 0.0559695 0.072333746 0.0774651 -0.110879265 -0.019630231 -0.0016228386 -0.08005233 0.1916355 0.027267281 0.051221546 0.024951773 -0.012105971 0.007683939 0.059225757 0.040487874
공원 -0.046674106 0.07742975 -0.04233326 0.050924595 0.08372959 -0.04096657 0.032255117 0.013221282 0.08908698 -0.006473944 0.016127285 0.16159515 0.007671045 -0.03161654 -0.14363919 0.017309591 -0.06939325 0.022783242 -0.10010646 -0.0660177 -0.010118499 -0.03091212 0.044209875 0.07863803 -0.017132344 0.06867863 0.044468008 0.06652074 -0.118145354 -0.008378772 -0.13390706 -0.05400509 0.038572587 -0.009387026 -0.022037113 0.037426285 -0.009232093 -0.052024618 0.10598481 -0.09943014 0.07807687 0.16893634 0.055347268 -0.0587476 -0.044701066 -0.018820636 -0.11112566 0.02361546 -0.02715544 0.11656984 -0.08267336 0.080088474 -0.12892708 0.021119604 0.01292505 0.06624636 -0.0041218363 0.01894863 0.004485479 -0.051401738 -0.010497818 -0.04875872 -0.06845135 0.08491473 0.09260578 0.107709356 -0.14424829 -0.12298042 0.13212274 0.09980288 0.15056135 -0.045459483 -0.03280609 0.068611965 -0.1201677 0.0014413672 0.010933858 -0.0070056617 -0.034262042 0.06414687 -0.028936327 -0.11820513 0.06849846 -0.07980775 -0.06791278 0.0967783 -0.03371134 0.07818459 0.0422845 0.00040708162 -0.06831581 -0.026612071 0.022634424 -0.007516607 0.09988084 -0.03975911 0.0031908555 -0.013696497 -0.06586178 -0.011669987 -0.098530956 -0.060499147 -0.0149639025 0.05128328 -0.1442436 0.056657754 -0.063432805 -0.08395769 -0.04895927 -0.053135376 0.07076737 0.0037921886 -0.10545642 0.010696085 0.05585003 0.06843538 0.0069394344 0.082633704 -0.10930828 -0.03118981 0.05231856 0.0030757296 -0.07696996 0.042005155 0.015039496 0.004362033 0.028328877 -0.052864574 0.08839055 0.012915353 -0.07586967 -0.026308566 -0.13123594 0.06354465 -0.014614226 0.00879024 0.11962086 0.0021367983 0.0022779 -0.13774459 0.013024831 -0.09703506 -0.010498423 -0.057364658 0.060319252 -0.07269909 -0.008317889 8.3313884e-05 0.06600889 -0.07833583 0.06077463 0.029015942 -0.046649866 0.0138127245 0.07877523 0.029448181 -0.06864034 -0.0763975 -0.019143673 -0.0812199 0.0038132907 0.06600944 0.029292807 0.07884989 -0.03466563 0.15978245 -0.073055014 -0.061707158 0.13539386 -0.039958283 0.02261503 -0.029187296 0.048978556 -0.19127256 0.017817728 -0.14206176 -0.12130161 0.010835316 0.03633646 -0.11210392 0.01817955 -0.0025687674 -0.043644853 0.0810232 0.06890453 0.010391727 -0.053714726 -0.11926107 -0.052556306 -0.12812267 0.053691313 0.08942666 0.07167511 -0.05495387 -0.026798354 0.039348356 0.03197192 -0.034015205 -0.086955264 0.06984642
공책 0.069014825 0.09942544 0.056419704 0.05002701 0.08708846 0.07636755 0.013965638 0.0022600521 0.10797278 -0.04585261 0.049680684 -0.027565576 0.031446368 0.09909903 -0.0384832 0.099171795 -0.11678876 -0.05401843 0.014678534 0.13003418 -0.15624125 -0.027035713 -0.07525903 0.027772669 -0.092930116 0.05699569 -0.040099707 -0.06034298 0.009600357 -0.056092024 0.007936374 0.0296424 -0.070428155 0.11831679 -0.13632116 0.04552521 -0.07425315 -0.046898033 -0.0377705 0.071469374 0.010106495 0.055292536 0.05101761 -0.1138286 0.026624471 0.045696836 -0.09496978 -0.10634758 0.025573019 0.08798133 0.04827029 -0.003825255 -0.07083744 0.012366953 -0.03362667 0.062692374 -0.0074613215 -0.0024356397 -0.08625181 0.063724615 0.06433706 -0.06587183 -0.065614395 0.13650681 0.09492211 -0.020346612 -0.033446494 -0.14220741 -0.052528393 -0.061669383 -0.06434744 0.028358195 0.07384737 -0.03354815 -0.024054522 -0.0052236193 0.074363776 -0.04153141 -0.12982668 0.09483223 -0.02986127 0.08778236 -0.027765939 -0.045712538 0.03259779 0.047360033 0.10967355 -0.0027334786 0.06842916 0.07966492 -0.058211192 -0.052349623 -0.008021189 -0.048061654 -0.012660333 -0.04143649 0.08748357 0.06692286 -0.009426002 -0.073371075 -0.0146639515 0.06623021 0.055147137 0.14304307 -0.11168265 0.07064913 -0.07034151 0.026447665 0.039195053 -0.07798728 -0.06591417 -0.06155988 -0.059707675 0.09223634 0.120831355 -0.03814767 0.09128935 -0.028941618 0.061979953 0.054966263 0.027593197 -0.03627331 0.05871077 0.06519404 -0.08869122 0.0015700822 0.05232747 -0.049128808 0.117320016 0.14040989 -0.08952113 0.12536834 -0.03141356 0.056070153 0.085147075 -0.019564226 -0.015576452 -0.021268645 -0.09478694 -0.1412806 0.054577317 -0.07078584 0.015117958 0.013765752 0.09007329 -0.08487871 0.014176854 -0.021953722 0.043134876 -0.06715365 -0.038850833 0.0884795 0.121049665 0.08460529 0.029738164 0.08749886 0.08429612 -0.09718667 0.10385418 -0.020553565 0.08397013 0.008473485 -0.06999813 -0.07841325 -0.046388645 0.08622138 0.13110359 -0.08983381 0.10609926 0.023942634 0.0613612 -0.017123694 0.13984188 -0.082082175 -0.07961304 -0.05532212 -0.059738524 0.050494473 0.08289582 0.108039945 -0.036860105 0.11114649 -0.0793207 0.030366454 0.034919985 -0.046143547 -0.07459779 -0.025139904 0.07068615 -0.065233715 -0.08446985 -0.061765153 -0.08465157 0.027861984 0.037107155 -0.07870881 -0.06290297 -0.011917966 0.01899917 0.04070921
공항 -0.03352787 0.04831499 -0.029342204 0.025286125 -0.19557908 -0.08736938 -0.12648147 -0.010298928 0.024950176 -0.037208147 -0.01661843 0.023223856 -0.020223716 0.070069745 -0.021402765 0.18983787 -0.023707924 0.025662906 0.037702043 0.06456204 -0.034033258 -0.084813826 0.021162368 0.00091926445 -0.08034503 0.101411745 0.115516946 0.017268468 -0.012413229 0.019492796 -0.117592536 -0.0004144736 -0.047175843 0.0397549 0.013279409 0.09913517 0.072540455 -0.027577618 -0.082000315 0.029094031 0.020353157 -0.0032440806 -0.04455476 -0.052100156 0.0002564359 -0.032357182 -0.081815474 0.083180785 -0.16468206 0.085197456 -0.112107575 0.03943533 -0.046467513 -0.022487212 0.07490848 0.014386254 -0.06729682 -0.03531495 0.06401435 -0.19784269 -0.005182509 -0.014308502 0.030666925 0.10532332 0.021944193 0.02356956 0.014149134 0.03393301 0.013582276 -0.0004908126 -0.049037986 -0.08460869 -0.0031509243 0.04040259 -0.020876689 0.09225336 -0.0062374948 0.13376427 -0.06443367 0.09933125 -0.050713573 -0.17472312 0.06346422 -0.14924653 0.0785846 0.044990223 -0.009604316 0.123207815 0.018886596 -0.048561938 0.014651883 -0.04656972 0.09140395 0.018680504 0.006511535 -0.082095675 -0.008566446 0.06929197 0.024161259 0.04842526 -0.19802949 -0.06563077 -0.014151825 0.12366185 -0.03302101 0.037269272 0.10427048 0.059062164 -0.022988154 0.02096026 0.04340339 0.14027421 0.14258672 0.08805767 0.11191294 -0.026335048 0.0010822656 0.097081825 -0.022120042 0.077635676 -0.012259973 -0.021476971 0.061839 -0.10065696 -0.050337035 0.026620384 -0.083907455 0.03149775 0.02525434 -0.021225328 -0.1885332 0.020683775 0.03940868 0.07612244 0.027150959 -0.0018982443 0.10795492 0.0126688825 -0.0022748027 -0.03372176 0.048964147 -0.086240016 0.053225607 -0.046608835 0.02641818 -0.10144353 0.036172178 0.025561927 0.12764214 0.04534695 0.07815793 0.111854516 0.02199329 -0.093542136 0.024799073 0.066401444 -0.037642382 -0.008969022 -0.012816489 -0.034445003 0.024589533 -0.053566936 0.034146465 -0.033950616 0.05134513 0.0041670348 0.07032891 -0.029062247 -0.0060952916 0.019795222 0.09623731 -0.035302967 0.031862795 -0.046594657 0.00063520204 -0.1460203 0.07313924 0.038397413 0.18797769 0.017307958 -0.034675326 0.094423816 -0.057897594 0.09360888 0.07630777 -0.03308409 -0.12961017 -0.1246054 -0.01219557 0.020675413 0.027403532 -0.06364613 0.032112435 -0.016370894 -0.012856857 -0.040844165 0.034628138 0.09499694 -0.029898694 0.04448752
과일 -0.03887172 -0.00037916834 0.022982107 0.014174809 0.1156858 -0.006535094 0.054552674 -0.048399795 0.074821815 -0.070898026 -0.115362935 0.14777924 0.016633406 -0.009267704 0.032283943 0.091011174 -0.14220472 -0.050588235 -0.076998435 -0.058410514 0.002434514 -0.09858244 -0.078543745 0.036693916 -0.0748341 -0.0393884 0.026955245 -0.07230885 -0.07684622 -0.1377444 -0.08269704 0.0006740017 0.07199048 0.100826666 -0.15237924 0.031389326 0.047053974 -0.13469374 -0.071669504 0.020644408 0.0106632095 0.05801958 -0.085673496 0.06322939 -0.013683964 0.12029573 -0.04873259 0.06916434 -0.058673818 -0.09982947 0.032667313 -0.033797346 -0.022705287 -0.027710645 -0.027906112 0.06344211 0.007880469 -0.025496205 0.0069729947 0.08646506 0.13142985 0.045792527 -0.032998927 0.14126189 -0.09362601 -0.17240304 -0.10706652 -0.082162395 0.080158785 0.0043255696 -0.03752684 -0.008169228 0.050512362 -0.028084328 -0.043043207 -0.114910305 0.05901252 0.053413194 0.015346932 0.07676681 0.1294617 0.17708011 -0.08315344 -0.038360715 -0.02097779 0.06748266 0.07769924 -0.12314171 0.055961605 0.0031382707 -0.040978145 -0.0009712128 0.05735754 -0.03751408 -0.032119907 0.029949905 -0.07205217 -0.04123081 -0.029902633 -0.06536323 0.0120670125 -0.07641582 0.01478128 0.03299798 -0.14326385 0.07662783 0.05660781 0.012365651 -0.017789152 0.008291638 0.08401663 0.011598668 -0.024069546 0.008718004 0.16570961 0.049724344 -0.012606618 0.13393928 -0.07742246 0.07168676 0.033474714 -0.034353025 0.031443216 0.008111982 0.019136654 0.014705362 -0.043510962 -0.0014003142 -0.054201685 0.028201798 -0.08182181 0.011817347 0.0020261435 -0.2106009 -0.018226132 0.009444215 0.020326292 0.018962504 -0.07100581 -0.0200797 0.10832135 -0.13482657 -0.06858503 -0.0039208764 0.05215387 -0.061852597 0.029565347 -0.042329878 0.004325333 -0.049272906 0.026983371 0.027307183 0.05943111 -0.01125661 0.10880304 -0.08705075 -0.09115157 -0.060566578 0.033279955 0.012441309 -0.029560385 0.02161376 -0.0021795945 0.036665317 -0.031979274 0.020066747 0.040218253 -0.07557722 0.04537701 0.002919923 0.05776455 -0.11298091 -0.05556736 -0.07812965 -0.017411072 -0.011790969 0.14837416 0.019500433 0.09023025 0.013543164 0.07292102 -0.008716563 0.14646603 -0.060803406 0.09125155 0.18461473 0.0073067327 -0.103502475 0.03139358 -0.008471931 0.011301755 0.048408538 0.0051491363 -0.112326205 -0.025087541 0.081809744 -0.08773053 -0.015138702 -0.10940363 -0.047158677
과자 -0.028709317 0.045349043 -0.036983546 0.042582944 0.08987517 -0.041492246 0.03752087 -0.07989043 0.13126488 -0.057729542 -0.051941093 0.1048791 0.0027135708 -0.014363785 0.007545946 0.13018395 -0.066047154 -0.0129529545 -0.02252784 0.0014297365 -0.08499338 0.036024738 0.018740075 -0.031278588 -0.030275403 0.0018029519 -0.0073410715 -0.07608981 -0.07240627 -0.061976478 -0.032338943 0.015753204 0.029630264 0.08440265 -0.16116317 0.053616248 0.024352232 -0.16354288 -0.095162906 -0.009899664 -0.07973849 0.014124986 0.072770834 0.032850694 -0.039499912 0.02485039 -0.045777295 0.08870049 -0.00512428 0.08026077 0.082838066 -0.00019997757 -0.030610884 -0.08004138 0.047870927 0.059056178 0.055718154 -0.1492771 0.00042478135 0.010742656 0.002245588 0.0346116 0.031648673 0.11612554 -0.014018248 -0.06491258 -0.11601772 -0.1353358 0.07729334 0.074242145 -0.02880911 0.015155804 0.034698103 0.069776066 -0.072640955 -0.10023225 0.021835664 0.07658952 0.04886935 0.020910079 0.12449354 0.09469453 -0.099912815 -0.11040579 -0.024422515 0.030429604 0.020389354 -0.06334298 0.11903681 -0.028008012 -0.13198724 -0.007560263 -0.048112635 -0.07528244 -0.0761728 0.030436875 -0.17139713 -0.049720842 -0.06418796 -0.10632133 -0.029087925 -0.02524743 0.036994077 0.07737131 -0.021063177 0.13299744 0.049994394 -0.10117501 -0.033832565 0.06529018 0.013200002 0.00084185257 0.046891056 0.0017794557 0.1193051 0.056566637 -0.026082626 0.055897932 -0.07161546 0.008590781 -0.01855769 -0.071625486 0.096046746 0.041328017 0.013723685 0.11649287 -0.012255236 0.016091669 0.030929318 0.074021 -0.1711291 0.08962494 0.028684495 0.008539806 0.021016741 0.1281332 0.10087688 -0.010405645 -0.08955197 -0.003875749 0.050391056 -0.0012776813 -0.11872916 -0.09718182 0.02883343 -0.1036974 0.00020470817 -0.0223605 0.031365845 -0.06046079 0.10624034 0.14827643 0.07135244 -0.053166684 0.07919816 -0.1003501 -0.011515319 -0.04912284 -0.07563848 -0.05678879 0.03320498 0.035580434 -0.039426196 0.077531524 0.05373535 -0.011138039 0.12440127 -0.16224232 0.03473471 -0.00043718517 0.11813693 0.03754895 0.007821754 0.042735137 -0.056209844 -0.093935564 0.08692052 0.10329697 0.09417551 0.005046251 -0.05337504 0.084466085 0.026694166 -0.13005483 0.06398335 0.054226786 0.07411402 -0.04037623 0.04105597 -0.06268606 0.06027976 0.03671626 -0.036434438 0.018990735 -0.042505465 0.07017975 -0.13942577 0.08812505 -0.009636368 0.062583506
교회 0.1351961 -0.03431423 0.011645481 0.009538358 0.07259705 -0.016942756 0.036962267 -0.06306812 0.07845677 -0.08795493 0.026734611 0.13548397 0.14552835 0.106972285 -0.0535392 0.0003312747 0.10418071 -0.038181834 -0.10764717 0.043540955 0.010712966 -0.03142346 0.02613739 0.032223176 -0.10705303 -0.06543677 0.050489 0.060461614 -0.006407777 -0.043086246 -0.028739799 -0.021491347 0.03353707 0.09357218 0.022891335 0.082438946 -0.014476913 -0.21808977 -0.03714912 -0.08573008 0.029566173 0.064787515 0.044418335 -0.037008658 0.046751354 -0.23665267 -0.08291544 -0.00769878 0.0187921 -0.0031878683 -0.011676163 0.11889754 -0.060027156 0.095944144 0.04031031 -0.080268435 -0.025114546 -0.0032055546 0.08488449 -0.028960234 -0.06886094 -0.06368842 -0.14283904 0.093847714 0.026987856 0.09345272 -0.03348196 -0.104729235 -0.005430124 0.08531945 0.087019116 0.021429034 0.08275986 -0.042266794 -0.053864468 0.038255908 0.0057758475 0.032028373 -0.022341378 0.061092418 0.07208749 -0.035593264 0.009176922 -0.05779128 -0.04798066 0.045465913 0.03685615 -0.023096597 0.10294064 -0.060926836 -0.07704855 0.0053585083 -0.03478227 -0.020762118 -0.0043398957 0.13885096 0.042281657 0.097758636 -0.031224556 0.00093781325 -0.07474757 -0.061603516 -0.054479636 -0.13561444 -0.031483952 0.02791317 0.09431729 -0.07804768 -0.022584189 -0.015034433 -0.057861514 0.015652828 0.10691486 0.067101315 0.033978965 -0.049662117 -0.011600703 0.070038475 -0.07347443 0.023697691 0.03054198 0.024819883 -0.010577041 -0.009595415 -0.06763292 0.0021337862 -0.087671444 0.053176254 0.029807368 0.037034802 -0.048379496 0.069925696 -0.15379721 0.021473633 0.035283376 0.1526148 -0.029154012 0.04538389 0.0856455 -0.05024909 -0.0010895466 -0.1800607 -0.020634854 -0.032682758 0.069919035 -0.12044878 -0.065766655 -0.03631352 0.010299523 0.120846845 0.059492473 0.014770193 -0.015871314 0.073440336 0.03968745 0.041026976 0.14370206 -0.040493317 0.014878463 -0.030293863 0.07366437 -0.04339306 -0.047605667 0.009406379 -0.004156909 0.16713144 0.04705304 0.013986676 -0.037755314 -0.10357068 0.097930886 0.0037404671 -0.024377244 -0.021317126 0.011357814 -0.059555527 0.09662596 0.0749175 -0.009174743 -0.035402816 -0.09399587 0.05091475 0.020355057 -0.059760585 -0.036024135 0.068794556 -0.13134414 -0.08560038 0.02336832 -0.011430071 0.020449486 0.13788055 0.007674686 -0.023281813 -0.023481384 0.04659961 -0.20493598 0.052822277 -0.083089225 -0.095229276
구두 0.066666216 -0.032303844 -0.039603494 0.043333337 0.100401044 -0.032280482 0.04562307 -0.026105184 0.003884705 -0.007404213 -0.11128204 0.069280334 0.11214455 0.00061271776 0.05406691 0.06522342 0.054661434 0.013111225 -0.08927246 0.09666717 -0.10179282 -0.027431147 -0.031061906 0.039904512 0.043874152 0.04622457 -0.027151877 -0.06753195 0.0820915 -0.040130883 0.010812417 0.056889944 -0.047270488 0.024599392 0.0341352 0.103812955 -0.04784379 -0.05672587 0.012293129 -0.20053221 -0.05427798 0.06134857 0.021004213 -0.029049829 0.013747716 -0.004348022 -0.05092622 0.024224123 0.08418924 0.013208191 0.03846762 0.071449764 0.07692181 0.06577551 0.08579745 0.016981054 0.006816675 -0.00076211296 0.014555473 -0.008113931 0.10989403 -0.009379527 0.10837926 0.0063614943 0.06229352 0.01767654 -0.1354879 -0.12874842 0.053170033 0.07360819 -0.076200284 -0.15813255 0.06521188 0.12542619 0.18615581 0.0064194156 -0.047440197 0.046215978 -0.07031578 0.04933224 -0.05880347 0.0007156416 0.010784624 0.021406842 -0.09140484 0.0003462607 0.12116869 -0.07101878 -0.016498027 -0.09143922 -0.041050587 -0.14840327 -0.08740432 -0.03438386 -0.055127595 0.19355077 0.11142383 -0.05667969 -0.0045602126 -0.023466662 0.06865359 -0.03843352 -0.005430671 -0.051243886 0.07245272 -0.022889059 0.10168971 -0.020794492 0.034218445 -0.021394972 -0.063283846 0.10322918 0.00016127809 -0.059160072 0.09721282 -0.034765434 0.08962987 0.0813791 0.02544101 0.077136636 -0.01501103 0.07369734 0.105554625 -0.016163522 0.008425342 -0.013619817 -0.12041493 0.1373531 -0.064127296 0.08489923 -0.03690506 0.0076312795 -0.0061176713 -0.06416677 0.014761139 0.021406224 -0.02583647 -0.06385635 -0.0047190194 -0.08160037 0.001330368 -0.04326916 0.01622515 0.11762761 0.021595296 -0.23133473 -0.034934606 0.06914875 0.11638299 0.040775348 -0.06627605 0.105647 0.09548753 0.01900583 -0.057926994 -0.06595731 0.0219414 0.09736803 0.046907973 -0.070394985 0.12831849 -0.062469404 0.06268986 0.0551574 -0.019878868 0.06367966 0.120201714 -0.02103751 0.06357386 0.09518517 0.014396774 0.00056286296 0.14926846 -0.07597391 -0.020212887 0.030991552 0.004789884 -0.0044053528 0.061019894 0.084296115 0.04924282 0.055573888 0.06389502 -0.053456552 0.029553587 -0.040534746 -0.037482932 -0.03228827 0.06437514 -0.1212855 0.048828214 0.010763437 0.06121028 -0.039950162 0.12999518 0.057910077 0.0239618 -0.023850333 -0.112571515 0.077753715
구름 0.058676988 0.057760328 -0.059479393 0.08877549 -0.037807245 -0.16444752 -0.042947005 -0.056671683 0.19417217 0.06617486 -0.011661331 0.010208985 -0.018525993 0.0016197475 -0.006260182 0.09469622 -0.0765069 -0.07759795 -0.051833197 -0.11204183 -0.010412302 0.005459601 0.039723556 0.09485317 -0.035332076 0.15529652 0.05096765 0.07761459 0.034122158 -0.004440248 -0.063877486 -0.013234891 0.02908703 0.08208024 0.051633347 0.09613585 0.06918743 -0.05202242 0.100585856 -0.0733927 -0.07012053 -0.06329217 0.0019774842 -0.04300233 -0.10739037 -0.029443432 0.09456131 -0.16913305 0.03912982 -0.026465531 -0.009473571 -0.0036432552 -0.023758242 0.032136887 -0.026989311 -0.02419282 0.011929374 -0.06996458 -0.127402 0.12256029 0.038769007 -0.038817517 0.018727286 0.0601024 0.079155855 0.06252925 -0.10084344 -0.06568996 0.07953611 0.11301782 0.11935328 0.05289398 -0.0010317268 -0.021926522 -0.09442781 -0.0109618185 0.029957589 -0.038931776 -0.04589644 0.015864145 0.118737094 0.047754418 -0.13134025 -0.078647114 -0.05083435 -0.004482022 0.09370198 -0.023573227 0.021291293 0.12028859 -0.05424402 -0.044033248 -0.027014969 0.006510345 0.006261204 -0.03533368 0.04861536 -0.029072396 -0.047181733 0.031598277 -0.017164972 -0.07434523 0.07659189 -0.046915736 -0.08659459 -0.040280007 0.030356083 -0.09893054 0.107538104 -0.072717175 0.08645948 0.06851131 0.09587707 0.03633253 0.07656623 -0.09814517 -0.010929986 -0.04114816 -0.051272936 -0.07501213 0.157549 0.0053914273 0.15695405 0.06693597 -0.013007579 0.029641876 -0.10338736 -0.0111609055 -0.06444276 -0.015514579 -0.027159894 -0.037172616 -0.05565098 -0.006607944 -0.06438262 -0.015582752 0.09574276 0.032014616 0.021558695 -0.0924239 -0.051077493 -0.113153726 0.028992819 0.017265277 0.10659197 0.019885812 0.105388865 0.0529449 -0.047845624 -0.0014011537 0.023341706 -0.057687968 -0.004553423 -0.0289856 0.023049448 -0.09615049 0.05131643 0.02955889 0.103920765 -0.095902525 -0.06766922 -0.13382903 -0.098343216 0.08884325 0.013662414 0.0670406 0.0058787637 -0.12810495 0.10011781 -0.056642417 0.08555686 0.12460369 -0.010263327 0.04655953 -0.022051804 0.07493536 0.14512585 -0.01603026 -0.03464914 0.06156228 -0.033095848 -0.04331002 0.024911636 -0.060700346 0.14956725 -0.038989905 -0.01591933 -0.06109583 -0.031945862 -0.08988278 -0.04642423 0.057729058 -0.036327716 -0.06575271 -0.105809614 -0.00822871 -0.03784353 -0.115212165 -0.09354262 0.10014287
국 0.049744762 0.05098513 -0.029219778 0.036172204 -0.055739656 0.07790159 -0.030324 0.044227958 -0.06381056 -0.11198889 -0.04014574 0.25652328 -0.049621224 -0.011150159 0.0748605 0.1549542 -0.01691465 -0.04198685 0.08332872 -0.04423835 -0.039836608 -0.0034241113 0.031675436 -0.0047786944 0.013744405 0.061595876 0.051984683 0.06459867 -0.04371393 -0.033055972 0.008303325 -0.08426501 0.073902525 -0.043378968 0.019102097 0.07500897 0.07153491 -0.049536 0.020364596 -0.012110832 -0.04450739 0.024768893 -0.042590853 0.048442617 -0.123339936 0.10138617 -0.020009974 -0.026021205 -0.08457829 -0.016032936 -0.09794417 0.058883503 -0.019452117 0.025340796 0.12626404 -0.059173923 -0.019015921 -0.06392103 -0.02952267 -0.15856159 0.02489955 0.21387424 -0.0023008848 0.07540689 0.021139676 0.13544703 -0.0040984633 -0.12825273 0.013059658 0.035591956 0.1440275 -0.05367613 -0.039497193 -0.1005152 0.00392234 0.07175555 -0.03612291 0.11275502 -0.037797134 -0.029678127 0.14340064 0.06778795 0.04101106 -0.033829834 -0.0063584573 0.096408926 0.08603129 -0.04042309 0.023053627 -0.008557131 0.098546095 -0.037656378 0.040671345 -0.0399741 -0.053807084 0.055977814 -0.10852255 0.06870346 0.14088544 0.074514836 -0.02833462 -0.19069493 -0.026339954 -0.009447308 -0.0504328 0.057662725 -0.04516128 0.064308845 -0.020682277 -0.016989393 -0.05286307 0.016188212 -0.07715268 -0.03394149 0.064876914 -0.031076184 0.027548734 0.1259757 0.10400945 0.061400484 -0.0077026174 -0.095600314 0.06651135 0.07696233 -0.07013923 -0.043585353 0.11645893 0.05959263 -0.06463668 0.02022488 0.03168494 -0.039510258 0.015654616 -0.13131937 -0.009356975 -0.032737937 0.07189006 -0.013694366 -0.14030518 0.041313954 -0.067982756 -0.031935867 0.09642852 -0.12093491 0.022706639 0.037465435 0.15190627 -0.016685432 0.10732375 -0.0247846 -0.036762547 0.09107267 0.06086359 0.034973104 -0.0035529595 0.027807705 -0.08454177 0.04895308 0.118183926 -0.18516803 -0.03919133 0.083941035 -0.024773998 0.020624103 0.03377371 0.0037915616 -0.0013718242 -0.01879487 -0.054465726 -0.0058478755 -0.020839395 0.023264999 0.066089675 0.024891652 0.072223544 -0.0085366415 0.116226114 0.0557649 -0.044434343 -0.0066281212 -0.010083828 0.043207627 -0.05408414 -0.059493747 0.08207825 -0.09961068 0.12057827 -0.041942604 0.006846204 -0.02743978 -0.038408563 -0.04602898 -0.059007037 0.032775648 -0.055957917 -0.09155047 -0.030228678 -0.08047737 -0.037273902 0.028553
군인 -0.02820174 0.12649257 -0.062487226 -0.011424676 0.03424426 0.07977466 0.044113412 -0.021502253 0.09267648 0.13948205 -0.06671867 0.17542252 -0.09420367 0.012326285 0.094426274 0.106703155 0.11272424 -0.06553034 0.012061494 0.029547546 -0.015144151 -0.02327189 -0.0737621 0.053371914 -0.02709209 -0.06632017 0.06589283 0.038575467 0.032463137 0.035342455 -0.040515985 0.011013431 -0.026668863 0.11508579 0.029736074 0.06048844 -0.08930166 -0.031729363 -0.01132813 0.029574754 0.005009795 -0.023404766 0.024623195 0.04322574 0.027466536 -0.11937632 0.008189464 -0.10707444 0.022214154 -0.011833584 -0.016649574 -0.01657636 -0.070951484 0.032248776 0.018965613 -0.016121283 -0.010288724 -0.15374178 0.02195835 0.022778336 -0.0007631135 0.016703248 0.097239636 0.18441968 0.040067203 0.037951067 0.018347593 -0.032280654 0.042779975 0.022684759 -0.0010559341 0.13327189 -0.13274918 0.105155624 -0.007801662 0.06306518 0.06803012 -0.017054442 0.030572908 0.051579244 0.004962141 -0.053153425 0.0037136495 -0.1328973 0.039249334 0.08030617 -0.04721259 0.09905731 -0.09766424 0.072739206 -0.0049014604 -0.043482147 0.06504005 0.12577145 -0.069636464 0.077361725 0.056080014 0.07018254 0.07098941 -0.05543198 -0.07829914 -0.04838526 0.059930276 -0.060117707 -0.020318154 0.029048469 -0.03654645 -0.047509946 -0.0123249395 0.0678229 0.023123486 0.13964449 -0.058018334 0.08769972 -0.041865643 -0.03530755 -0.028545817 0.07794765 -0.012646647 0.10565003 -0.081156746 0.10039103 0.10018106 -0.05943752 0.0028903089 -0.14740492 0.04624714 0.048121154 -0.076825544 -0.02369138 -0.15981315 0.11849744 -0.06586754 -0.031478174 -0.111081354 0.034218978 0.07368377 0.040614925 0.021556888 0.04097769 -0.018566323 -0.0041014245 0.021383915 -0.022117168 0.063072324 -0.15167263 -0.07211619 -0.08803309 0.124627076 -0.047602013 -0.01544772 0.06756567 0.08052328 -0.037425883 0.04391005 0.058993682 0.025831092 0.017645339 -0.0638476 -0.035616174 0.14981127 0.032062445 -0.059083827 0.05911378 -0.045629885 0.10522406 0.06723753 0.014463388 -0.006612835 0.03671107 0.0890535 0.000862602 0.044171676 -0.022345545 0.025815291 -0.13199095 0.09080302 -0.05323615 0.09939204 0.07090614 -0.14953808 0.12594457 0.06196259 -0.038563922 0.04986353 -0.07728807 -0.07470721 0.028452927 0.02998149 -0.010325412 -0.10837077 0.075637214 -0.049259193 -0.015586396 -0.074136406 0.07737464 -0.19959125 0.003587671 0.057165287 0.006944079
귀 0.12349065 -0.08591082 0.07698748 0.013466946 0.04386897 0.04390531 -0.0728792 0.027902959 0.03240545 0.00097357127 0.007530429 0.1266271 -0.0061554033 0.07702868 0.06328617 0.08420581 0.013040175 0.0835681 -0.06136771 -0.06544425 0.0016925553 0.030973999 0.02094121 0.06695542 0.07810275 -0.07938665 0.07938083 -0.059679426 0.009480944 0.065805994 -0.07365671 -0.050916485 -0.0066065732 0.08527044 0.15251371 0.10308538 0.04975567 -0.039717067 0.002776243 0.013015219 0.027343994 0.054769397 -0.086486265 -0.015845686 0.030672343 -0.04013163 0.038752507 0.06652633 -0.051535785 -0.028203642 0.0052375807 0.011740235 0.04440855 0.024390467 -0.023590494 -0.007950803 -0.0025537957 -0.09864927 -0.09158358 0.06611152 0.11600143 0.11052371 -0.11868213 0.09623508 -0.009484263 -0.058121737 -0.119552195 0.02360382 0.061765548 0.08552994 0.12474668 -0.0019175322 0.01877232 0.09308724 0.04748274 0.005390151 -0.06753038 -0.02817481 -0.08000813 0.07101598 0.06338817 -0.07489046 0.06535921 -0.1593737 -0.07783817 0.010227006 0.13902706 -0.0054809377 0.084946014 -0.02356561 0.037280593 -0.16479811 0.008033934 0.058823895 0.04085608 0.10773664 -0.0345049 0.06990532 -0.06458001 -0.006442881 -0.16341923 0.032885917 0.08698708 -0.070560955 0.0071514617 -0.0651128 0.08410187 0.051197544 -0.078340925 -0.036728896 0.032063823 0.16465612 -0.089189745 0.09901295 -0.05642885 -0.041739713 0.11192585 0.07617411 -0.044377778 -0.007154393 0.04990662 0.0042680046 0.045125976 0.098007925 -0.06876582 -0.001621128 -0.028006176 0.196844 -0.13227491 -0.059944976 0.09223631 0.040731058 -0.034512416 0.028565627 4.1457446e-05 -0.056097396 0.12009711 0.023507994 0.061932247 -0.08274868 -0.035625502 0.05099935 -0.05324345 0.11033642 -0.0058939466 -0.06303249 0.06024469 -0.019480657 -0.018239884 0.016603427 0.053034592 0.024640996 0.053056642 -0.017852873 -0.04473419 0.055576712 -0.018567195 -0.023153039 0.015085571 -0.046574388 0.026973773 0.032883253 0.15143964 0.05666702 0.113779135 0.20934573 0.049520645 0.004897525 0.011673848 0.008495134 -0.054946754 -0.10309628 0.10068936 -0.038277373 0.01644206 -0.013115237 0.0055047064 -0.009088771 0.01659754 -0.14414085 0.09455528 -0.119153626 -0.017398506 0.0818602 -0.13287942 -0.024554983 0.023237234 -0.08226604 0.025460908 0.0094164945 -0.12294355 0.023134068 0.1056035 0.008348064 0.009209021 0.051805694 -0.008615287 0.024107786 0.09652946 -0.007117201
귤 0.029210774 -0.039196383 -0.10715505 0.02938412 0.041655246 -0.015269563 0.05982816 0.15607074 0.12508248 -0.012618211 0.045084607 0.11069702 -0.0044539417 -0.00039485097 -0.048334137 0.089233704 -0.16694096 0.027304767 -0.07400333 -0.039993733 -0.06858542 -0.045543127 -0.049722075 -0.00058336847 -0.061157137 -0.030829055 -0.033920176 0.02095036 -0.15207458 -0.11492707 -0.01699279 0.12315467 0.0036064973 0.050410148 -0.06568749 -0.010320074 0.012221011 -0.010455291 -0.041116934 0.02304072 0.026178025 0.039478414 -0.035003677 0.030762428 0.02107988 0.13460603 -0.024929432 -0.03393216 -0.041446332 -0.051405407 -0.09365223 -0.025688846 0.0996 -0.058423124 -0.01586664 0.066818364 0.096639186 0.03572752 -0.030352848 0.02562458 0.090810515 0.04014703 0.008157469 0.13248365 0.07009069 -0.041195355 -0.021220205 -0.05310957 -0.023510244 0.0049685715 0.0042353934 -0.1685724 0.019243818 0.044072054 -0.15869154 -0.09142213 0.07883812 -0.087082416 0.06494969 0.08314934 0.014611382 0.12457385 -0.15318303 -0.077515826 0.04479393 0.059408557 0.0610119 0.045279965 -0.017973762 0.024609668 -0.10943113 -0.04540044 0.12606713 -0.06504207 0.021221777 0.007002347 -0.05484479 -0.12898825 -0.0677356 0.015923811 0.0021140412 0.034923494 0.07115415 0.07396304 -0.0494652 -0.054293703 0.010264357 -0.07852759 -0.021498304 -0.023190284 0.044646922 -0.07096783 -0.0007835857 0.00027613132 0.09569817 0.005930085 0.032265536 0.03377749 -0.08108237 0.0048535783 -0.047580417 -0.0028846003 0.06932459 -0.021497518 0.0079424195 0.019442221 -0.04876534 -0.012647121 -0.17471652 -0.056550525 -0.041642472 0.0048034224 -0.023855755 -0.051263705 -0.04588726 0.034675267 0.14853162 -0.0038333589 0.10071909 -0.108882606 0.086570635 -0.092888884 -0.10578302 0.036101922 0.112842806 -0.16622458 -0.0108728325 -0.042057164 -0.019538878 -0.04654271 0.07763827 0.09509382 0.073795594 0.00832368 0.05967643 -0.0960826 -0.10798306 -0.07443708 -0.030853424 -0.04081997 0.05017057 0.020462755 -0.030957982 0.02984657 -0.04581788 0.0787145 0.019867446 -0.094330676 0.018697487 0.00096427905 0.028909093 3.5150097e-05 -0.004593522 0.046029553 -0.10829692 -0.046955828 0.06178212 -0.022408856 0.009398418 0.07826797 0.024631089 0.018766806 0.01645098 -0.13217881 0.12620196 0.19265594 0.068630226 -0.028610555 -0.011546401 -0.0270986 -0.10296883 0.019460067 0.042585652 -0.12186086 -0.05316637 -0.06791031 -0.17298661 0.13286965 0.030503785 -0.07368435
그네 -0.0012211234 0.11753933 -0.12815629 -0.099110775 0.02800334 0.009907135 0.059683297 -0.024460275 0.08727422 -0.05582973 -0.0731266 0.1383904 0.05477738 0.011311897 -0.05142907 0.04015104 -0.050063044 0.08087444 0.021544736 -0.034273703 -0.06984268 0.082690895 0.058377683 -0.025311979 -0.015005303 -0.14287914 0.009576375 -0.04544712 -0.005195628 -0.108704485 0.018785963 -0.03924894 0.020528004 -0.06158226 0.04885743 0.057721853 -0.044685245 -0.056679837 -0.014738027 -0.031170556 0.044487305 -0.013476928 -0.051560078 -0.19384554 0.051974088 -0.005571986 -0.0083669 -0.04878811 0.05906038 0.078886926 0.08621456 0.06051131 -0.0122736525 -0.05604627 0.05433046 -0.04903677 -0.12241075 -0.07077404 0.09341023 0.05093923 0.10433007 0.036188245 -0.120711476 0.054472435 0.014332065 0.04302763 -0.045684807 -0.08248055 0.0024519418 0.10781574 0.0817527 -0.06626003 -0.0361008 0.119800635 -0.08347359 0.14399667 -0.050430626 -0.052221477 -0.02506618 0.09362073 0.08960404 -0.016200487 0.10268628 0.0054542874 -0.0285005 0.0012153727 0.09712024 0.066229664 -0.004826345 0.03358512 -0.090597086 -0.010166621 -0.077645384 -0.12371096 -0.043482017 0.055545453 -0.10945476 0.03887802 -0.07132986 -0.027280418 0.006649931 -0.062876746 0.034771178 0.0136031965 -0.02909639 -0.112411946 0.1417077 0.12526095 0.11513988 0.067471206 -0.018180216 0.029661275 -0.027160063 -0.05613705 0.061830763 -0.08221631 0.04170007 0.010414214 -0.111066744 0.02270329 0.058263686 -0.13876864 0.065432966 -0.0029759533 0.03510855 0.05667014 0.047523037 -0.06081641 -0.033730276 -0.021467626 0.03009134 0.016586987 -0.0067724953 0.10426807 0.07522525 0.08691252 0.036508605 -0.003742025 0.012812068 -0.0819031 0.00879655 -0.091231935 -0.044143412 0.031724315 0.04636035 -0.038959898 -0.0190944 0.10352018 -0.0826451 0.009757717 0.0927029 -0.07052618 -0.1667777 0.065609604 0.06599452 0.0012718249 0.0070792963 -0.02617799 -0.07256171 -0.0900551 -0.023773283 -0.03574546 -0.037511192 0.033702772 0.07612052 0.12506714 -0.028730873 -0.045774158 0.02432593 0.056826904 -0.047478043 0.09226838 -0.08676753 0.05792425 0.014446982 0.03349084 -0.028639296 -0.051675506 0.110595345 -0.029366987 0.089030094 -0.016821496 -0.090744786 -0.006907747 0.044229265 -0.040445805 -0.16651854 -0.058237933 0.021116897 0.20356932 0.043569777 -0.0027564848 -0.110861965 0.0017266029 0.15690625 -0.09853222 -0.033779565 -0.026740652 -0.023040026 0.16120833
